{"learner":{"attributes":{"scikit_learn":"{\"_estimator_type\": \"classifier\"}"},"feature_names":["url_len","host_len","path_len","query_len","num_dots","num_hyphens","num_underscores","num_slashes","num_digits","num_at_signs","num_question_marks","num_equals","num_ampersands","has_ip_host","entropy_host","entropy_path","entropy_url","has_login_kw","has_pay_kw","has_suspicious_tld","protocol_https","subdomain_count","digit_letter_ratio","has_punycode","has_misspelled_brand","keyword_pressure","rare_tld","path_depth","num_params","html_len","num_scripts","num_iframes","num_forms","num_inputs","num_links","num_images","has_password_field","has_hidden_input","num_external_links","num_suspicious_keywords","html_entropy","num_obfuscated_js","has_onclick_hooks","has_onmouseover_hooks","external_script_loads","form_action_external","spoofed_brand_terms","fake_security_indicators"],"feature_types":["float","float","float","float","float","float","float","float","float","float","float","float","float","float","float","float","float","float","float","float","float","float","float","float","float","float","float","float","float","float","float","float","float","float","float","float","float","float","float","float","float","float","float","float","float","float","float","float"],"gradient_booster":{"model":{"cats":{"enc":[],"feature_segments":[],"sorted_idx":[]},"gbtree_model_param":{"num_parallel_tree":"1","num_trees":"100"},"iteration_indptr":[0,1,2,3,4,5,6,7,8,9,10,11,12,13,14,15,16,17,18,19,20,21,22,23,24,25,26,27,28,29,30,31,32,33,34,35,36,37,38,39,40,41,42,43,44,45,46,47,48,49,50,51,52,53,54,55,56,57,58,59,60,61,62,63,64,65,66,67,68,69,70,71,72,73,74,75,76,77,78,79,80,81,82,83,84,85,86,87,88,89,90,91,92,93,94,95,96,97,98,99,100],"tree_info":[0,0,0,0,0,0,0,0,0,0,0,0,0,0,0,0,0,0,0,0,0,0,0,0,0,0,0,0,0,0,0,0,0,0,0,0,0,0,0,0,0,0,0,0,0,0,0,0,0,0,0,0,0,0,0,0,0,0,0,0,0,0,0,0,0,0,0,0,0,0,0,0,0,0,0,0,0,0,0,0,0,0,0,0,0,0,0,0,0,0,0,0,0,0,0,0,0,0,0,0],"trees":[{"base_weights":[-4.334632E-3,9.992013E-2,-1.5953068E0,-3.161429E-1,-1.9664404E0,3.7111536E-1,-9.939848E-1,-9.959987E-2,-1.0563526E0,4.917924E-1,-8.273807E-2,-1.0684711E0,6.70619E-2,3.9454333E-2,-9.160807E-2,7.0972145E-1,-3.2218164E-1,-8.2513785E-1,-1.7039874E0,-4.2495102E-1,5.9348356E-2,5.505335E-1,1.5075166E0,-5.8125156E-1,7.01147E-2,-1.2862234E0,-2.2497992E-1,-8.754625E-2,-3.8782008E-2,6.0051795E-2,-7.3750004E-2,6.540586E-1,-3.4992772E-1,8.318599E-2,3.4249485E-2,3.9800245E-1,-1.0341357E0,-8.005608E-2,-8.903188E-1,-7.565224E-1,5.4742026E-1,-3.7176766E-2,4.7950655E-2,8.4394723E-1,3.6460567E-1,-5.652694E-2,2.9571247E-1,-1.7250655E-2,8.787058E-1,-1.271214E0,-9.244132E-3,-3.5068125E-1,-1.2795409E0,-1.3185242E0,-9.3855485E-2,9.649844E-1,-7.666667E-2,5.2561563E-1,1.3112097E0,6.211947E-1,-8.615483E-2,3.798484E-2,-8.206217E-3,1.5841842E-2,6.130367E-2,-7.714882E-2,6.037049E-4,3.4249485E-2,-7.903078E-1,3.5659038E-3,-1.5909228E0,-8.206217E-3,-7.8241765E-2,5.1752084E-1,-7.326909E-1,1.1889135E0,-0E0,7.7756673E-1,-7.0162535E-2,3.297861E-2,7.194602E-2,-3.790092E-2,8.559241E-1,-4.417767E-1,5.1827587E-2,-7.009434E-2,-6.3442937E-3,-8.6533666E-2,-3.499123E-2,-8.809985E-3,5.9348356E-2,-5.531869E-3,-7.3750004E-2,1.3830236E0,2.293857E-2,-5.531869E-3,9.8609877E-1,-3.360532E-2,4.554365E-1,3.5659038E-3,-8.206217E-3,7.5854445E-3,1.0597459E0,-7.2047883E-1,1.5841842E-2,3.0076308E-2,7.901019E-2,5.9445675E-2,1.327037E-2,3.798484E-2,6.037049E-4,1.5841842E-2,6.0673583E-2,9.360451E-3,-6.1330736E-2],"categories":[],"categories_nodes":[],"categories_segments":[],"categories_sizes":[],"default_left":[0,0,0,0,0,0,0,0,0,0,0,0,0,0,0,0,0,0,0,0,0,0,0,0,0,0,0,0,0,0,0,0,0,0,0,0,0,0,0,0,0,0,0,0,0,0,0,0,0,0,0,0,0,0,0,0,0,0,0,0,0,0,0,0,0,0,0,0,0,0,0,0,0,0,0,0,0,0,0,0,0,0,0,0,0,0,0,0,0,0,0,0,0,0,0,0,0,0,0,0,0,0,0,0,0,0,0,0,0,0,0,0,0,0,0],"id":0,"left_children":[1,-1,3,5,7,9,11,-1,13,15,-1,17,-1,19,-1,21,23,25,27,29,-1,31,33,35,-1,37,39,-1,-1,41,-1,43,45,-1,-1,47,49,-1,51,53,55,-1,-1,57,59,-1,61,-1,63,65,-1,67,69,71,73,75,-1,77,79,81,83,-1,-1,-1,-1,-1,-1,-1,85,-1,87,-1,-1,89,91,93,-1,95,97,-1,-1,99,101,103,-1,-1,-1,-1,-1,-1,-1,-1,-1,105,-1,-1,107,-1,109,-1,-1,-1,111,113,-1,-1,-1,-1,-1,-1,-1,-1,-1,-1,-1],"loss_changes":[9.461729E3,0E0,7.8480225E2,1.7439099E2,2.7419922E1,4.6189323E1,3.416678E1,0E0,3.19333E1,3.1564892E1,0E0,2.665924E1,0E0,9.305954E0,0E0,1.6691124E1,1.7643879E1,3.677095E1,5.5270386E-1,6.5095277E0,0E0,1.1263336E1,1.5213165E0,1.5405619E1,0E0,7.7678833E0,2.4958364E1,0E0,0E0,7.474646E0,0E0,5.415165E0,6.8305135E0,0E0,0E0,4.391982E0,4.324156E0,0E0,6.938654E0,1.3096899E1,2.3015715E1,0E0,0E0,8.532589E0,5.206161E0,0E0,1.8242102E0,0E0,8.671484E-1,6.451145E0,0E0,8.08651E0,8.846001E0,5.0454254E0,7.2836924E0,4.6894817E0,0E0,6.040453E0,9.071388E-1,4.501465E0,7.0777864E0,0E0,0E0,0E0,0E0,0E0,0E0,0E0,4.598594E0,0E0,6.23085E-1,0E0,0E0,4.727255E0,3.8857198E0,1.6451416E0,0E0,5.363365E0,4.2860427E0,0E0,0E0,1.3531078E-1,2.741643E0,3.117366E0,0E0,0E0,0E0,0E0,0E0,0E0,0E0,0E0,0E0,8.543453E-1,0E0,0E0,2.8691788E0,0E0,8.83091E-1,0E0,0E0,0E0,1.2965546E0,5.04511E0,0E0,0E0,0E0,0E0,0E0,0E0,0E0,0E0,0E0,0E0,0E0],"parents":[2147483647,0,0,2,2,3,3,4,4,5,5,6,6,8,8,9,9,11,11,13,13,15,15,16,16,17,17,18,18,19,19,21,21,22,22,23,23,25,25,26,26,29,29,31,31,32,32,35,35,36,36,38,38,39,39,40,40,43,43,44,44,46,46,48,48,49,49,51,51,52,52,53,53,54,54,55,55,57,57,58,58,59,59,60,60,68,68,70,70,73,73,74,74,75,75,77,77,78,78,81,81,82,82,83,83,93,93,96,96,98,98,102,102,103,103],"right_children":[2,-1,4,6,8,10,12,-1,14,16,-1,18,-1,20,-1,22,24,26,28,30,-1,32,34,36,-1,38,40,-1,-1,42,-1,44,46,-1,-1,48,50,-1,52,54,56,-1,-1,58,60,-1,62,-1,64,66,-1,68,70,72,74,76,-1,78,80,82,84,-1,-1,-1,-1,-1,-1,-1,86,-1,88,-1,-1,90,92,94,-1,96,98,-1,-1,100,102,104,-1,-1,-1,-1,-1,-1,-1,-1,-1,106,-1,-1,108,-1,110,-1,-1,-1,112,114,-1,-1,-1,-1,-1,-1,-1,-1,-1,-1,-1],"split_conditions":[-4.9624783E-1,9.992013E-2,4.526516E-1,-4.2355463E-1,2.3233943E0,4.9642253E0,1.3653965E1,-9.959987E-2,-3.974439E-1,-4.0828806E-1,-8.273807E-2,6.3990634E-3,6.70619E-2,1.0966121E0,-9.160807E-2,2.4248633E0,2.9117153E0,3.4733E-1,4.250558E0,1.2029448E0,5.9348356E-2,-3.582582E-1,1.315986E-1,5.991689E-1,7.01147E-2,-4.3460763E-1,-1.4509527E-1,-8.754625E-2,-3.8782008E-2,1.8771551E0,-7.3750004E-2,1.1468773E0,-5.339988E-1,8.318599E-2,3.4249485E-2,9.9704033E-1,5.5357274E-2,-8.005608E-2,-3.0098653E-1,1.8408391E0,1.07102E0,-3.7176766E-2,4.7950655E-2,1.3883121E0,-7.4639016E-1,-5.652694E-2,-4.6598452E-1,-1.7250655E-2,5.5357274E-2,-4.9207145E-1,-9.244132E-3,-3.3611673E-1,-3.3869478E-1,-3.3216712E-1,-3.9859724E-1,1.0966121E0,-7.666667E-2,1.2049309E0,-5.3742033E-1,2.3233943E0,1.998868E0,3.798484E-2,-8.206217E-3,1.5841842E-2,6.130367E-2,-7.714882E-2,6.037049E-4,3.4249485E-2,6.700935E-1,3.5659038E-3,2.3591373E-2,-8.206217E-3,-7.8241765E-2,1.781241E0,5.856275E-1,8.3621347E-1,-0E0,2.3233943E0,-7.4639016E-1,3.297861E-2,7.194602E-2,1.4511596E0,1.3294467E0,-5.164739E-1,5.1827587E-2,-7.009434E-2,-6.3442937E-3,-8.6533666E-2,-3.499123E-2,-8.809985E-3,5.9348356E-2,-5.531869E-3,-7.3750004E-2,5.468492E-1,2.293857E-2,-5.531869E-3,-5.2322954E-1,-3.360532E-2,-6.795796E-1,3.5659038E-3,-8.206217E-3,7.5854445E-3,-1.6849282E0,-1.0192616E0,1.5841842E-2,3.0076308E-2,7.901019E-2,5.9445675E-2,1.327037E-2,3.798484E-2,6.037049E-4,1.5841842E-2,6.0673583E-2,9.360451E-3,-6.1330736E-2],"split_indices":[1,0,6,34,4,5,17,0,34,39,0,29,0,5,0,1,1,40,1,6,0,31,40,1,0,30,30,0,0,1,0,1,44,0,0,16,41,0,30,45,39,0,0,16,30,0,34,0,41,35,0,40,34,34,35,5,0,16,29,4,1,0,0,0,0,0,0,0,32,0,34,0,0,16,40,40,0,4,30,0,0,1,1,29,0,0,0,0,0,0,0,0,0,40,0,0,35,0,30,0,0,0,40,40,0,0,0,0,0,0,0,0,0,0,0],"split_type":[0,0,0,0,0,0,0,0,0,0,0,0,0,0,0,0,0,0,0,0,0,0,0,0,0,0,0,0,0,0,0,0,0,0,0,0,0,0,0,0,0,0,0,0,0,0,0,0,0,0,0,0,0,0,0,0,0,0,0,0,0,0,0,0,0,0,0,0,0,0,0,0,0,0,0,0,0,0,0,0,0,0,0,0,0,0,0,0,0,0,0,0,0,0,0,0,0,0,0,0,0,0,0,0,0,0,0,0,0,0,0,0,0,0,0],"sum_hessian":[2.9675164E3,1.3136089E3,1.6539075E3,3.7242255E2,1.2814849E3,1.8507825E2,1.873443E2,1.2452183E3,3.6266644E1,1.754346E2,9.64365E0,1.8212051E2,5.223796E0,1.53729925E1,2.089365E1,1.3858226E2,3.6852337E1,1.3347131E2,4.8649197E1,1.1330146E1,4.0428467E0,1.17043434E2,2.1538832E1,3.266584E1,4.1864963E0,7.474044E1,5.8730877E1,4.5361897E1,3.2872992E0,8.330146E0,3E0,1.0531963E2,1.1723796E1,1.7139635E1,4.399197E0,1.0298394E1,2.2367445E1,3.9792847E1,3.494759E1,3.487854E1,2.3852335E1,4.4309487E0,3.899197E0,6.223241E1,4.3087227E1,5.037299E0,6.6864963E0,4.0745983E0,6.223796E0,1.7005547E1,5.361898E0,1.5548394E1,1.9399197E1,1.8255547E1,1.6622993E1,2.0352335E1,3.5E0,3.8406277E1,2.3826132E1,2.7357883E1,1.5729343E1,3.111898E0,3.5745986E0,3.2182481E0,3.0055475E0,1.3930949E1,3.0745986E0,4.399197E0,1.1149197E1,3.7182481E0,1.5680949E1,3.5745986E0,1.4680949E1,8.511095E0,8.111897E0,1.6384089E1,3.9682481E0,2.6895184E1,1.1511095E1,5.0428467E0,1.8783285E1,7.2928467E0,2.0065037E1,1.2473796E1,3.2555475E0,5.1436496E0,6.0055475E0,1.264365E1,3.0372992E0,4.4682484E0,4.0428467E0,5.111898E0,3E0,1.212854E1,4.2555475E0,5.111898E0,2.1783285E1,5.3245983E0,6.1864963E0,3.7182481E0,3.5745986E0,5.0055475E0,1.5059489E1,9.255548E0,3.2182481E0,3.361898E0,8.766643E0,1.6384089E1,5.399197E0,3.111898E0,3.0745986E0,3.2182481E0,1.1841241E1,3.4682481E0,5.787299E0],"tree_param":{"num_deleted":"0","num_feature":"48","num_nodes":"115","size_leaf_vector":"1"}},{"base_weights":[-2.086803E-2,9.516888E-2,-1.524966E0,-3.0141646E-1,-1.868862E0,4.347202E-1,-8.298494E-1,-1.896169E0,-9.396755E-1,5.5344385E-1,-1.0886787E0,-5.526368E-1,-1.5624049E0,-9.493176E-2,-3.503325E-2,-7.193771E-2,-1.672509E0,3.7013656E-1,7.996463E-2,-8.004152E-2,-1.9133888E-2,-9.9642575E-1,-8.332089E-2,-2.3908718E-2,-1.6246728E0,2.9471612E-1,-6.1080266E-2,-9.009196E-2,-3.579454E-2,8.906238E-2,1.038208E0,-6.809824E-1,-1.4469475E0,9.75365E-2,-1.1210104E0,-1.6949599E0,-2.4443723E-2,-2.28831E-2,6.6889215E-1,1.9494879E-1,-6.0051467E-2,1.2157077E0,-3.3423003E-2,-8.1361747E-1,3.5962526E-2,-1.5523621E0,-1.7135412E-2,-2.3035164E-1,8.6390823E-1,-1.2506937E-2,-7.493165E-2,-1.7463688E0,-3.1893943E-2,6.606812E-2,5.1893424E-3,3.3478245E-1,-7.0147586E-1,1.4098852E0,6.599916E-1,-3.2155454E-1,-1.0980545E0,-8.290247E-2,-4.3805104E-2,-4.1543454E-1,5.14718E-2,1.2627791E-1,1.3285347E0,-9.013032E-2,-4.2004973E-2,4.0515266E-2,6.8846494E-1,-7.67805E-2,-7.844854E-2,8.22612E-2,1.0369868E-2,-4.3265693E-4,5.3532626E-2,-5.76444E-1,3.0216632E-2,-1.2430722E0,2.6031926E-3,1.3157643E-2,-8.467873E-1,4.4448826E-2,-4.056097E-2,3.0612359E-2,7.587084E-2,4.7767705E-1,-5.520562E-1,6.769257E-2,2.98111E-1,4.1576568E-2,-5.3658433E-2,5.3085607E-2,-5.590399E-2,-5.794042E-1,-1.4757577E0,-3.0557653E-1,3.9323088E-2,-6.871216E-2,-2.0259723E-1,2.4935108E-1,7.4462645E-2,-5.973817E-2,-1.5142749E-1,-9.044632E-3,4.867822E-2,4.2912576E-2,-3.9104667E-2,4.3895E-3,-5.7711776E-2,-8.459562E-2,-1.6450206E-2,1.7788044E-1,-5.6004386E-2,2.937722E-1,-5.493201E-2,2.967656E-2,-1.8364267E-2,2.8568959E-2,-2.9561123E-2,-1.9613715E-2,2.664401E-2,3.4674104E-2,-3.846415E-2,-7.533823E-3,3.7061837E-2],"categories":[],"categories_nodes":[],"categories_segments":[],"categories_sizes":[],"default_left":[0,0,0,0,0,0,0,0,0,0,0,0,0,0,0,0,0,0,0,0,0,0,0,0,0,0,0,0,0,0,0,0,0,0,0,0,0,0,0,0,0,0,0,0,0,0,0,0,0,0,0,0,0,0,0,0,0,0,0,0,0,0,0,0,0,0,0,0,0,0,0,0,0,0,0,0,0,0,0,0,0,0,0,0,0,0,0,0,0,0,0,0,0,0,0,0,0,0,0,0,0,0,0,0,0,0,0,0,0,0,0,0,0,0,0,0,0,0,0,0,0,0,0,0,0,0,0],"id":1,"left_children":[1,-1,3,5,7,9,11,13,15,17,19,21,23,-1,-1,25,27,29,-1,-1,-1,31,33,-1,35,37,-1,-1,-1,39,41,43,45,47,49,51,-1,-1,53,55,-1,57,-1,59,-1,61,-1,63,65,-1,-1,67,-1,-1,-1,69,71,73,75,77,79,-1,-1,81,-1,83,85,-1,-1,87,89,-1,91,-1,-1,-1,-1,93,-1,95,-1,97,99,-1,-1,-1,-1,101,103,-1,105,-1,-1,107,-1,109,111,113,-1,-1,115,117,-1,-1,119,121,-1,-1,-1,-1,-1,-1,-1,123,-1,125,-1,-1,-1,-1,-1,-1,-1,-1,-1,-1,-1],"loss_changes":[8.632838E3,0E0,7.0366895E2,1.437729E2,3.1087402E1,2.8509207E1,4.258087E1,2.1489258E0,2.4753067E1,2.6844387E1,3.330227E0,3.263439E1,2.9536438E0,0E0,0E0,8.521653E0,1.0869827E0,2.3084188E1,0E0,0E0,0E0,1.0285301E1,1.4812693E1,0E0,3.319519E0,4.621324E0,0E0,0E0,0E0,1.2222525E1,1.1933289E1,9.796455E0,3.033371E0,1.7121193E1,3.3009605E0,1.4202576E0,0E0,0E0,3.6589174E0,1.0566719E1,0E0,2.4769478E0,0E0,5.9143314E0,0E0,3.7241364E-1,0E0,1.14848585E1,6.6800756E0,0E0,0E0,6.671753E-1,0E0,0E0,0E0,7.426915E0,5.6365547E0,6.2112656E0,3.0499334E0,4.668496E0,4.933342E0,0E0,0E0,7.925569E0,0E0,7.2171254E0,5.2633095E-1,0E0,0E0,1.0798827E1,7.9066715E0,0E0,7.8335433E0,0E0,0E0,0E0,0E0,5.2668233E0,0E0,2.8626747E0,0E0,5.7394853E0,6.781888E0,0E0,0E0,0E0,0E0,5.010248E0,4.2276287E0,0E0,4.657756E0,0E0,0E0,5.9158754E0,0E0,3.4115431E0,3.7160187E0,6.7079453E0,0E0,0E0,5.2163086E0,4.6774316E0,0E0,0E0,4.1894236E0,3.5122368E0,0E0,0E0,0E0,0E0,0E0,0E0,0E0,5.9017606E0,0E0,1.6983124E0,0E0,0E0,0E0,0E0,0E0,0E0,0E0,0E0,0E0,0E0,0E0],"parents":[2147483647,0,0,2,2,3,3,4,4,5,5,6,6,7,7,8,8,9,9,10,10,11,11,12,12,15,15,16,16,17,17,21,21,22,22,24,24,25,25,29,29,30,30,31,31,32,32,33,33,34,34,35,35,38,38,39,39,41,41,43,43,45,45,47,47,48,48,51,51,55,55,56,56,57,57,58,58,59,59,60,60,63,63,65,65,66,66,69,69,70,70,72,72,77,77,79,79,81,81,82,82,87,87,88,88,90,90,93,93,95,95,96,96,97,97,100,100,101,101,104,104,105,105,113,113,115,115],"right_children":[2,-1,4,6,8,10,12,14,16,18,20,22,24,-1,-1,26,28,30,-1,-1,-1,32,34,-1,36,38,-1,-1,-1,40,42,44,46,48,50,52,-1,-1,54,56,-1,58,-1,60,-1,62,-1,64,66,-1,-1,68,-1,-1,-1,70,72,74,76,78,80,-1,-1,82,-1,84,86,-1,-1,88,90,-1,92,-1,-1,-1,-1,94,-1,96,-1,98,100,-1,-1,-1,-1,102,104,-1,106,-1,-1,108,-1,110,112,114,-1,-1,116,118,-1,-1,120,122,-1,-1,-1,-1,-1,-1,-1,124,-1,126,-1,-1,-1,-1,-1,-1,-1,-1,-1,-1,-1],"split_conditions":[-4.9624783E-1,9.516888E-2,4.526516E-1,-6.795796E-1,2.3233943E0,3.675021E0,-3.5958276E-3,2.4559727E0,-4.4533435E-1,2.702888E0,2.3233943E0,2.4797347E-1,-7.4645233E-1,-9.493176E-2,-3.503325E-2,-6.170878E-1,3.35025E-1,3.4483775E-1,7.996463E-2,-8.004152E-2,-1.9133888E-2,-3.582582E-1,2.3858166E0,-2.3908718E-2,1.352403E0,1.9489827E0,-6.1080266E-2,-9.009196E-2,-3.579454E-2,-4.9207145E-1,-4.6835262E-1,-4.5715907E-1,-4.7252584E-2,1.1641296E0,-3.3040032E-1,1.3997775E0,-2.4443723E-2,-2.28831E-2,-5.3670496E-1,5.7810116E-1,-6.0051467E-2,1.2496098E0,-3.3423003E-2,-4.9207145E-1,3.5962526E-2,1.7235778E-1,-1.7135412E-2,-4.24581E-1,5.50878E-1,-1.2506937E-2,-7.493165E-2,2.0205452E0,-3.1893943E-2,6.606812E-2,5.1893424E-3,1.0654383E0,-5.3541255E-1,1.6062984E0,1.5377616E0,3.666243E0,-1.6775624E-1,-8.290247E-2,-4.3805104E-2,-3.8017076E-1,5.14718E-2,-6.7284834E-1,-2.7871636E-1,-9.013032E-2,-4.2004973E-2,1.2049309E0,1.0580035E0,-7.67805E-2,-5.491064E-1,8.22612E-2,1.0369868E-2,-4.3265693E-4,5.3532626E-2,1.0580035E0,3.0216632E-2,-4.7889864E-1,2.6031926E-3,-2.771691E-1,-2.4284549E-1,4.4448826E-2,-4.056097E-2,3.0612359E-2,7.587084E-2,1.5640943E-1,1.0037374E0,6.769257E-2,1.0966121E0,4.1576568E-2,-5.3658433E-2,2.3233943E0,-5.590399E-2,1.1265404E0,9.483201E-2,-4.9207145E-1,3.9323088E-2,-6.871216E-2,-3.8048215E-2,-5.804837E-1,7.4462645E-2,-5.973817E-2,4.3247063E-2,-5.3541255E-1,4.867822E-2,4.2912576E-2,-3.9104667E-2,4.3895E-3,-5.7711776E-2,-8.459562E-2,-1.6450206E-2,8.2332325E-1,-5.6004386E-2,-1.00554906E-1,-5.493201E-2,2.967656E-2,-1.8364267E-2,2.8568959E-2,-2.9561123E-2,-1.9613715E-2,2.664401E-2,3.4674104E-2,-3.846415E-2,-7.533823E-3,3.7061837E-2],"split_indices":[1,0,6,30,4,5,29,8,35,0,4,40,22,0,0,22,40,8,0,0,0,31,5,0,14,0,0,0,0,35,38,22,38,14,33,44,0,0,29,40,0,8,0,35,0,40,0,22,40,0,0,36,0,0,0,14,29,0,0,4,29,0,0,29,0,22,30,0,0,16,0,0,44,0,0,0,0,0,0,29,0,44,38,0,0,0,0,40,14,0,5,0,0,4,0,0,40,35,0,0,38,40,0,0,8,29,0,0,0,0,0,0,0,40,0,30,0,0,0,0,0,0,0,0,0,0,0],"split_type":[0,0,0,0,0,0,0,0,0,0,0,0,0,0,0,0,0,0,0,0,0,0,0,0,0,0,0,0,0,0,0,0,0,0,0,0,0,0,0,0,0,0,0,0,0,0,0,0,0,0,0,0,0,0,0,0,0,0,0,0,0,0,0,0,0,0,0,0,0,0,0,0,0,0,0,0,0,0,0,0,0,0,0,0,0,0,0,0,0,0,0,0,0,0,0,0,0,0,0,0,0,0,0,0,0,0,0,0,0,0,0,0,0,0,0,0,0,0,0,0,0,0,0,0,0,0,0],"sum_hessian":[2.9807607E3,1.3075868E3,1.673174E3,3.6756827E2,1.3056057E3,1.535929E2,2.1397539E2,1.2672166E3,3.8389122E1,1.4313986E2,1.0453028E1,1.5660431E2,5.7371075E1,1.2639374E3,3.2791603E0,1.8142025E1,2.0247097E1,1.2302639E2,2.011347E1,5.2415586E0,5.2114687E0,7.98044E1,7.679992E1,3.6745102E0,5.3696564E1,1.4253079E1,3.888945E0,1.6965374E1,3.2817242E0,8.749717E1,3.552923E1,4.8546753E1,3.1257645E1,6.60907E1,1.0709214E1,5.002076E1,3.6758056E0,4.5711737E0,9.681906E0,8.1716545E1,5.78062E0,3.249581E1,3.0334167E0,4.4794056E1,3.752695E0,2.8080591E1,3.1770537E0,4.6685497E1,1.9405205E1,3.8220458E0,6.887168E0,4.6988888E1,3.0318713E0,3.7903512E0,5.8915544E0,7.132813E1,1.0388415E1,2.2808937E1,9.686873E0,1.7317556E1,2.7476501E1,2.2901789E1,5.178802E0,4.1358837E1,5.3266597E0,8.074045E0,1.133116E1,4.3208256E1,3.7806315E0,3.9697075E1,3.1631054E1,3.746794E0,6.6416216E0,1.8698174E1,4.1107626E0,3.9655385E0,5.721335E0,1.395992E1,3.3576362E0,2.4405373E1,3.0711293E0,2.111582E1,2.0243017E1,4.5394273E0,3.5346177E0,3.360014E0,7.9711456E0,2.3052814E1,1.6644262E1,1.0688054E1,2.0943E1,3.501729E0,3.1398926E0,6.7878914E0,7.1720285E0,7.3529773E0,1.7052395E1,1.5289462E1,5.826359E0,1.0421491E1,9.821527E0,1.9905285E1,3.1475303E0,5.5342045E0,1.1110058E1,1.4972822E1,5.9701786E0,3.502941E0,3.2849505E0,3.7147088E0,3.6382687E0,1.3874549E1,3.1778462E0,1.0008002E1,5.2814593E0,6.681053E0,3.1404738E0,1.2903013E1,7.0022707E0,4.0035753E0,7.106482E0,9.04043E0,5.9323916E0,6.722129E0,3.2858734E0,3.5724578E0,3.1085954E0],"tree_param":{"num_deleted":"0","num_feature":"48","num_nodes":"127","size_leaf_vector":"1"}},{"base_weights":[4.5758476E-3,9.106465E-2,-1.4429855E0,-2.666907E-1,-1.7894746E0,3.6026743E-1,-8.671113E-1,-9.084117E-2,-1.1367859E0,4.810369E-1,-1.0998682E0,-4.8952433E-1,-1.2702954E0,2.1626185E-1,-1.5116024E0,3.3787894E-1,7.265343E-2,-1.9009592E-2,-7.4402176E-2,-9.815755E-1,1.409528E-1,-1.5388036E0,-9.567191E-1,8.6419505E-1,-3.5139654E-2,-9.5716685E-1,-8.597276E-2,5.182513E-1,-4.0821174E-1,-1.0850134E0,1.6496936E-2,-2.5093997E-1,7.9087067E-1,-1.6381962E0,-3.4200635E-2,5.345092E-2,-1.1410062E0,2.370414E-3,6.788282E-2,1.306055E-2,-6.9620304E-2,2.9009473E-1,1.0559931E0,-1.0298989E0,3.214394E-1,-1.5670213E0,-8.469239E-1,6.6335326E-1,-7.5486815E-1,1.2569765E0,-9.665544E-3,-1.9296622E-2,-8.6823516E-2,-7.432763E-1,-1.6036742E0,3.9991793E-1,-5.479453E-1,7.97857E-2,3.9394876E-1,-8.221105E-3,-1.3325518E0,-2.6592677E-2,5.3863764E-2,-8.599254E-2,-4.0955387E-2,2.0170474E-2,-1.0307233E0,5.955699E-2,-4.9814624E-3,-1.1613773E0,3.0117566E-2,3.4634713E-2,8.030575E-2,-2.5636277E-1,-6.9546424E-2,-2.9954314E-2,-8.775188E-2,1.2346036E-1,6.90517E-1,-5.8865476E-2,2.376204E-2,9.625393E-1,-2.3246127E-1,-3.0282363E-2,-8.167987E-2,-2.4457587E-2,1.9050768E-2,-1.4133488E0,-5.6517047E-1,-1.4742092E0,-8.705212E-4,-7.211044E-1,3.5944503E-2,5.5886304E-1,-6.2846345E-1,4.6556506E-1,6.472223E-2,1.9569045E-2,6.158256E-2,-5.0722606E-2,3.3250388E-2,-7.6338165E-2,-3.148465E-2,3.9969202E-2,-9.4022566E-1,-8.348972E-2,-3.594854E-2,-5.6312528E-2,-4.2717694E-3,2.7523744E-1,1.1165272E0,-5.8048334E-2,-0E0,7.7506083E-1,-4.2457126E-2,-1.3476207E0,-0E0,3.676149E-2,-2.519512E-2,7.1723364E-2,3.233745E-2,2.2912402E-2,-2.3149148E-2,6.395848E-3,5.1894363E-2,-3.0181987E-2,-7.9311125E-2],"categories":[],"categories_nodes":[],"categories_segments":[],"categories_sizes":[],"default_left":[0,0,0,0,0,0,0,0,0,0,0,0,0,0,0,0,0,0,0,0,0,0,0,0,0,0,0,0,0,0,0,0,0,0,0,0,0,0,0,0,0,0,0,0,0,0,0,0,0,0,0,0,0,0,0,0,0,0,0,0,0,0,0,0,0,0,0,0,0,0,0,0,0,0,0,0,0,0,0,0,0,0,0,0,0,0,0,0,0,0,0,0,0,0,0,0,0,0,0,0,0,0,0,0,0,0,0,0,0,0,0,0,0,0,0,0,0,0,0,0,0,0,0,0,0,0,0],"id":2,"left_children":[1,-1,3,5,7,9,11,-1,13,15,17,19,21,23,25,27,-1,-1,-1,29,31,33,35,37,-1,39,-1,41,43,45,-1,47,49,51,-1,-1,53,-1,-1,-1,-1,55,57,59,61,63,65,67,69,71,-1,-1,-1,73,75,77,79,-1,81,-1,83,85,-1,-1,-1,-1,87,-1,-1,89,-1,-1,-1,91,-1,-1,-1,93,95,-1,-1,97,99,-1,-1,-1,-1,101,103,105,-1,107,-1,109,111,113,-1,-1,-1,-1,-1,-1,-1,-1,115,-1,-1,-1,-1,117,119,-1,121,123,-1,125,-1,-1,-1,-1,-1,-1,-1,-1,-1,-1,-1],"loss_changes":[7.763816E3,0E0,6.689663E2,1.4156017E2,2.028955E1,3.293372E1,2.8427612E1,0E0,2.776632E1,2.3098495E1,3.243946E0,3.152077E1,6.0315857E0,8.06613E0,2.9672089E0,2.0445475E1,0E0,0E0,0E0,8.149796E0,1.1716168E1,2.7076187E0,1.813559E1,2.9561806E0,0E0,7.866308E0,0E0,1.4473824E1,1.3877909E1,4.516693E0,0E0,1.3752127E1,8.270603E0,4.2853394E0,0E0,0E0,6.3103333E0,0E0,0E0,0E0,0E0,8.198694E0,1.1930218E1,3.9145985E0,3.9099803E0,1.9101715E-1,9.167269E0,4.526255E0,1.12752E1,1.0060177E0,0E0,0E0,0E0,7.232933E0,1.5195122E0,6.058012E0,7.314294E0,0E0,6.510534E0,0E0,1.3884773E0,2.2173667E0,0E0,0E0,0E0,0E0,4.937626E0,0E0,0E0,5.218506E0,0E0,0E0,0E0,7.476118E0,0E0,0E0,0E0,1.380014E1,4.299614E0,0E0,0E0,8.0406475E-1,7.041846E0,0E0,0E0,0E0,0E0,3.784294E-1,9.370064E0,2.9678917E-1,0E0,2.6065297E0,0E0,3.7674408E0,5.2473445E0,1.2417252E1,0E0,0E0,0E0,0E0,0E0,0E0,0E0,0E0,5.143242E0,0E0,0E0,0E0,0E0,7.241262E0,1.3906956E-1,0E0,1.9166512E0,3.831334E0,0E0,5.1047325E-1,0E0,0E0,0E0,0E0,0E0,0E0,0E0,0E0,0E0,0E0,0E0],"parents":[2147483647,0,0,2,2,3,3,4,4,5,5,6,6,8,8,9,9,10,10,11,11,12,12,13,13,14,14,15,15,19,19,20,20,21,21,22,22,23,23,25,25,27,27,28,28,29,29,31,31,32,32,33,33,36,36,41,41,42,42,43,43,44,44,45,45,46,46,47,47,48,48,49,49,53,53,54,54,55,55,56,56,58,58,60,60,61,61,66,66,69,69,73,73,77,77,78,78,81,81,82,82,87,87,88,88,89,89,91,91,93,93,94,94,95,95,104,104,109,109,110,110,112,112,113,113,115,115],"right_children":[2,-1,4,6,8,10,12,-1,14,16,18,20,22,24,26,28,-1,-1,-1,30,32,34,36,38,-1,40,-1,42,44,46,-1,48,50,52,-1,-1,54,-1,-1,-1,-1,56,58,60,62,64,66,68,70,72,-1,-1,-1,74,76,78,80,-1,82,-1,84,86,-1,-1,-1,-1,88,-1,-1,90,-1,-1,-1,92,-1,-1,-1,94,96,-1,-1,98,100,-1,-1,-1,-1,102,104,106,-1,108,-1,110,112,114,-1,-1,-1,-1,-1,-1,-1,-1,116,-1,-1,-1,-1,118,120,-1,122,124,-1,126,-1,-1,-1,-1,-1,-1,-1,-1,-1,-1,-1],"split_conditions":[-4.9624783E-1,9.106465E-2,4.526516E-1,-4.2681846E-1,1.1270082E0,3.675021E0,3.3136597E-1,-9.084117E-2,-4.9596572E-1,2.8399618E0,-7.686477E-1,3.7529275E-1,-2.6206148E-1,1.2029448E0,-3.6806935E-1,-4.0828806E-1,7.265343E-2,-1.9009592E-2,-7.4402176E-2,2.4559727E0,-1.4509527E-1,3.140731E-1,-2.167386E-1,2.4972775E0,-3.5139654E-2,-7.2104144E-1,-8.597276E-2,3.4483775E-1,-5.076505E-1,1.0166358E0,1.6496936E-2,-4.9207145E-1,-2.1793275E-1,-1.3142301E0,-3.4200635E-2,5.345092E-2,1.0966121E0,2.370414E-3,6.788282E-2,1.306055E-2,-6.9620304E-2,-3.582582E-1,1.811573E0,7.1531934E-1,-5.13742E-1,8.5239303E-1,7.1531934E-1,1.4692247E0,7.805349E-1,-6.665895E-1,-9.665544E-3,-1.9296622E-2,-8.6823516E-2,-3.8421575E-2,1.630445E0,1.0586898E0,-6.7284834E-1,7.97857E-2,-4.6924835E-1,-8.221105E-3,-4.9596572E-1,-3.5205954E-1,5.3863764E-2,-8.599254E-2,-4.0955387E-2,2.0170474E-2,-3.5559905E-1,5.955699E-2,-4.9814624E-3,-1.9182202E-1,3.0117566E-2,3.4634713E-2,8.030575E-2,3.4483775E-1,-6.9546424E-2,-2.9954314E-2,-8.775188E-2,1.2049309E0,1.0966121E0,-5.8865476E-2,2.376204E-2,1.2038995E0,-4.8676136E-1,-3.0282363E-2,-8.167987E-2,-2.4457587E-2,1.9050768E-2,-2.583859E-1,-2.9577065E-1,-3.0512303E-1,-8.705212E-4,-1.07081E-1,3.5944503E-2,8.999367E-2,1.0166358E0,1.811573E0,6.472223E-2,1.9569045E-2,6.158256E-2,-5.0722606E-2,3.3250388E-2,-7.6338165E-2,-3.148465E-2,3.9969202E-2,3.4483775E-1,-8.348972E-2,-3.594854E-2,-5.6312528E-2,-4.2717694E-3,-7.4639016E-1,-6.9862E-1,-5.8048334E-2,1.1265404E0,-7.2104144E-1,-4.2457126E-2,8.999367E-2,-0E0,3.676149E-2,-2.519512E-2,7.1723364E-2,3.233745E-2,2.2912402E-2,-2.3149148E-2,6.395848E-3,5.1894363E-2,-3.0181987E-2,-7.9311125E-2],"split_indices":[1,0,6,34,14,5,39,0,38,0,40,40,44,6,34,39,0,0,0,8,30,34,44,0,0,22,0,8,35,14,0,35,34,40,0,0,5,0,0,0,0,31,16,0,22,0,0,0,40,22,0,0,0,34,16,14,22,0,34,0,38,40,0,0,0,0,38,0,0,34,0,0,0,8,0,0,0,16,5,0,0,14,38,0,0,0,0,35,38,35,0,38,0,40,14,16,0,0,0,0,0,0,0,0,8,0,0,0,0,30,22,0,0,22,0,40,0,0,0,0,0,0,0,0,0,0,0],"split_type":[0,0,0,0,0,0,0,0,0,0,0,0,0,0,0,0,0,0,0,0,0,0,0,0,0,0,0,0,0,0,0,0,0,0,0,0,0,0,0,0,0,0,0,0,0,0,0,0,0,0,0,0,0,0,0,0,0,0,0,0,0,0,0,0,0,0,0,0,0,0,0,0,0,0,0,0,0,0,0,0,0,0,0,0,0,0,0,0,0,0,0,0,0,0,0,0,0,0,0,0,0,0,0,0,0,0,0,0,0,0,0,0,0,0,0,0,0,0,0,0,0,0,0,0,0,0,0],"sum_hessian":[2.9502217E3,1.3082075E3,1.6420143E3,3.7408667E2,1.2679276E3,1.831134E2,1.9097327E2,1.2150773E3,5.2850285E1,1.6980746E2,1.330593E1,9.988854E1,9.1084724E1,1.1498426E1,4.135186E1,1.4927339E2,2.0534073E1,5.4460363E0,7.859894E0,5.587952E1,4.400902E1,4.6791798E1,4.4292923E1,6.8427734E0,4.6556525E0,1.2934894E1,2.8416965E1,1.2056534E2,2.870806E1,5.2025284E1,3.854237E0,2.7741344E1,1.6267677E1,4.09919E1,5.7998977E0,3.2478762E0,4.1045048E1,3.0662239E0,3.7765498E0,3.4492881E0,9.485605E0,8.586107E1,3.4704266E1,1.5352648E1,1.3355412E1,1.5217031E1,3.6808254E1,9.674244E0,1.80671E1,1.0920286E1,5.347391E0,3.4154148E0,3.7576485E1,2.3589283E1,1.7455765E1,7.648059E1,9.380483E0,1.8258219E1,1.6446049E1,4.463202E0,1.0889446E1,9.714697E0,3.6407146E0,1.1445092E1,3.7719386E0,4.494511E0,3.2313744E1,5.4642777E0,4.2099657E0,1.4070681E1,3.9964197E0,5.424143E0,5.4961433E0,1.4350572E1,9.238711E0,3.021418E0,1.4434346E1,4.0100487E1,3.63801E1,5.775229E0,3.6052542E0,8.423294E0,8.022755E0,4.168405E0,6.721041E0,4.5718174E0,5.14288E0,1.6501198E1,1.5812545E1,1.0753819E1,3.3168612E0,9.965027E0,4.385545E0,2.5642124E1,1.4458365E1,2.7917732E1,8.462365E0,3.6027713E0,4.8205223E0,4.2770844E0,3.745671E0,1.3475143E1,3.0260546E0,3.107736E0,1.2704809E1,7.47472E0,3.2790992E0,5.5186334E0,4.4463935E0,1.810624E1,7.535884E0,7.4229946E0,7.035371E0,2.2991764E1,4.925968E0,8.503221E0,4.201588E0,1.1500954E1,6.6052856E0,3.1426272E0,4.3932567E0,3.6101582E0,3.4252126E0,7.180001E0,1.5811764E1,3.02379E0,5.4794307E0],"tree_param":{"num_deleted":"0","num_feature":"48","num_nodes":"127","size_leaf_vector":"1"}},{"base_weights":[3.320937E-3,8.748596E-2,-1.3771267E0,-8.7516084E-2,-3.4844738E-1,2.5721216E-1,-9.235574E-1,5.141623E-1,-5.103218E-1,-9.989026E-1,7.0940234E-2,6.112899E-1,-7.79958E-2,1.9801159E-1,-9.537867E-1,-1.4146352E0,-6.555575E-1,4.2322534E-1,1.4177871E0,-9.351643E-2,6.344565E-2,-1.2814229E0,3.074274E-1,-1.057039E0,-1.5846083E0,-1.7796376E-1,-1.3853214E0,2.6796582E-1,8.7571794E-1,7.639517E-2,3.1954564E-2,5.5113053E-1,-8.090195E-1,-8.167797E-3,-1.4416345E0,3.7200566E-2,-6.604696E-3,-1.186864E0,-1.04787415E-2,-1.1608927E0,-1.6734736E0,8.873814E-3,-1.3683873E0,-1.582684E0,-6.944084E-1,3.6095482E-1,-4.493303E-2,1.1979133E0,-2.0010787E-1,5.869147E-2,-2.3007212E-2,-1.0318873E-2,-5.9849776E-2,-7.973052E-2,-1.642583E-2,-1.4922068E0,-4.8122975E-1,-7.524173E-2,-0E0,-8.626897E-2,-4.5814816E-2,-1.0242469E0,2.2943023E-1,-3.1227162E-2,-7.8985564E-2,-8.274626E-2,-3.115865E-2,-6.68199E-2,7.878498E-3,2.714708E-1,5.990531E-2,5.623882E-3,1.4624916E0,2.8280739E-2,-4.384197E-2,-8.4491216E-2,-3.0866558E-2,1.0339075E-2,-4.4711415E-2,2.031385E-3,-7.9448186E-2,8.497228E-4,5.6776967E-2,-5.289018E-2,5.3572947E-1,8.020919E-2,3.6417592E-2,2.6801965E-1,-6.255057E-1,1.0405567E0,-3.931886E-1,2.843709E-1,1.0399809E0,4.5658374E-1,-4.1609783E-2,-6.519813E-2,-1.6854815E-2,6.9100566E-2,1.4360552E-2,3.2169705E-3,-4.8618015E-2,-1.3947894E-4,4.2290352E-2,6.0323574E-2,1.5674485E-2,3.595134E-2,-1.4470674E-2,-3.5902664E-2,2.8333617E-2],"categories":[],"categories_nodes":[],"categories_segments":[],"categories_sizes":[],"default_left":[0,0,0,0,0,0,0,0,0,0,0,0,0,0,0,0,0,0,0,0,0,0,0,0,0,0,0,0,0,0,0,0,0,0,0,0,0,0,0,0,0,0,0,0,0,0,0,0,0,0,0,0,0,0,0,0,0,0,0,0,0,0,0,0,0,0,0,0,0,0,0,0,0,0,0,0,0,0,0,0,0,0,0,0,0,0,0,0,0,0,0,0,0,0,0,0,0,0,0,0,0,0,0,0,0,0,0,0,0],"id":3,"left_children":[1,-1,3,-1,5,7,9,11,13,15,-1,17,-1,19,21,23,25,27,29,31,-1,33,35,37,39,41,43,45,47,-1,-1,49,51,-1,53,-1,-1,55,-1,57,59,61,63,65,67,69,-1,71,73,-1,-1,-1,-1,-1,-1,75,77,-1,-1,-1,-1,79,81,-1,-1,-1,-1,-1,-1,83,-1,-1,85,-1,-1,-1,-1,-1,-1,-1,-1,87,-1,89,91,-1,-1,93,95,97,99,101,103,105,-1,-1,107,-1,-1,-1,-1,-1,-1,-1,-1,-1,-1,-1,-1],"loss_changes":[7.0779434E3,0E0,6.2866626E2,0E0,1.5281036E2,4.245752E1,4.106389E1,3.326902E1,1.7247347E1,3.0054642E1,0E0,2.2642181E1,0E0,6.9663434E0,1.4337324E1,4.0075684E0,4.2001167E1,8.557224E0,1.2660408E0,8.683012E0,0E0,4.41436E0,1.6280189E0,3.4309883E0,1.8829346E-1,1.6777767E1,5.2044983E0,1.0684156E1,1.1355457E1,0E0,0E0,6.8370576E0,1.6973472E0,0E0,3.2484016E0,0E0,0E0,5.502327E0,0E0,5.8832855E0,1.4143372E-1,1.5090992E1,3.9979744E-1,1.2612534E0,7.185347E0,6.2472525E0,0E0,6.7630577E0,4.7294016E0,0E0,0E0,0E0,0E0,0E0,0E0,2.2210999E0,3.257434E0,0E0,0E0,0E0,0E0,7.215914E0,1.1258641E1,0E0,0E0,0E0,0E0,0E0,0E0,7.142745E0,0E0,0E0,6.453247E-1,0E0,0E0,0E0,0E0,0E0,0E0,0E0,0E0,7.6520977E0,0E0,1.4391168E1,5.362568E0,0E0,0E0,7.0462437E0,5.4723015E0,1.7935553E0,7.993197E0,5.2453966E0,1.2465305E0,5.793472E0,0E0,0E0,3.806996E0,0E0,0E0,0E0,0E0,0E0,0E0,0E0,0E0,0E0,0E0,0E0,0E0],"parents":[2147483647,0,0,2,2,4,4,5,5,6,6,7,7,8,8,9,9,11,11,13,13,14,14,15,15,16,16,17,17,18,18,19,19,21,21,22,22,23,23,24,24,25,25,26,26,27,27,28,28,31,31,32,32,34,34,37,37,39,39,40,40,41,41,42,42,43,43,44,44,45,45,47,47,48,48,55,55,56,56,61,61,62,62,69,69,72,72,81,81,83,83,84,84,87,87,88,88,89,89,90,90,91,91,92,92,93,93,96,96],"right_children":[2,-1,4,-1,6,8,10,12,14,16,-1,18,-1,20,22,24,26,28,30,32,-1,34,36,38,40,42,44,46,48,-1,-1,50,52,-1,54,-1,-1,56,-1,58,60,62,64,66,68,70,-1,72,74,-1,-1,-1,-1,-1,-1,76,78,-1,-1,-1,-1,80,82,-1,-1,-1,-1,-1,-1,84,-1,-1,86,-1,-1,-1,-1,-1,-1,-1,-1,88,-1,90,92,-1,-1,94,96,98,100,102,104,106,-1,-1,108,-1,-1,-1,-1,-1,-1,-1,-1,-1,-1,-1,-1],"split_conditions":[-4.9624783E-1,8.748596E-2,9.8054534E-1,-8.7516084E-2,-4.2355463E-1,-4.0828806E-1,1.3653965E1,4.9642253E0,-5.491064E-1,1.6541111E-1,7.0940234E-2,2.4248633E0,-7.79958E-2,3.0334282E0,-4.0392202E-1,-5.1198226E-1,-2.0016202E-1,-5.657526E-1,1.315986E-1,9.643078E-1,6.344565E-2,5.383124E-1,1.1925142E0,-6.6848934E-1,7.208818E-1,2.3858166E0,1.555413E0,-6.0018474E-1,1.2077338E0,7.639517E-2,3.1954564E-2,2.3233943E0,-7.1778363E-1,-8.167797E-3,3.2159977E0,3.7200566E-2,-6.604696E-3,-3.9859724E-1,-1.04787415E-2,1.0456977E0,4.1778177E-1,-5.037835E-1,-4.764924E-1,1.5390396E0,1.3903031E0,-4.7783703E-1,-4.493303E-2,3.5574293E-1,-5.005679E-1,5.869147E-2,-2.3007212E-2,-1.0318873E-2,-5.9849776E-2,-7.973052E-2,-1.642583E-2,-3.9241654E-1,-7.1073973E-1,-7.524173E-2,-0E0,-8.626897E-2,-4.5814816E-2,-4.8569196E-1,-5.13742E-1,-3.1227162E-2,-7.8985564E-2,-8.274626E-2,-3.115865E-2,-6.68199E-2,7.878498E-3,1.0748407E0,5.990531E-2,5.623882E-3,9.034513E-1,2.8280739E-2,-4.384197E-2,-8.4491216E-2,-3.0866558E-2,1.0339075E-2,-4.4711415E-2,2.031385E-3,-7.9448186E-2,-2.1793275E-1,5.6776967E-2,8.1519276E-1,-6.7284834E-1,8.020919E-2,3.6417592E-2,-5.7189053E-1,1.8408391E0,5.383124E-1,-5.823281E-1,1.8771551E0,-5.274045E-1,3.3136597E-1,-4.1609783E-2,-6.519813E-2,1.5198506E0,6.9100566E-2,1.4360552E-2,3.2169705E-3,-4.8618015E-2,-1.3947894E-4,4.2290352E-2,6.0323574E-2,1.5674485E-2,3.595134E-2,-1.4470674E-2,-3.5902664E-2,2.8333617E-2],"split_indices":[1,0,4,0,34,39,17,5,44,40,0,1,0,1,38,40,29,22,40,1,0,1,14,40,1,5,42,22,1,0,0,4,22,0,1,0,0,35,0,14,44,44,35,32,1,29,0,1,38,0,0,0,0,0,0,38,22,0,0,0,0,29,22,0,0,0,0,0,0,14,0,0,1,0,0,0,0,0,0,0,0,34,0,16,22,0,0,22,45,1,40,1,29,39,0,0,16,0,0,0,0,0,0,0,0,0,0,0,0],"split_type":[0,0,0,0,0,0,0,0,0,0,0,0,0,0,0,0,0,0,0,0,0,0,0,0,0,0,0,0,0,0,0,0,0,0,0,0,0,0,0,0,0,0,0,0,0,0,0,0,0,0,0,0,0,0,0,0,0,0,0,0,0,0,0,0,0,0,0,0,0,0,0,0,0,0,0,0,0,0,0,0,0,0,0,0,0,0,0,0,0,0,0,0,0,0,0,0,0,0,0,0,0,0,0,0,0,0,0,0,0],"sum_hessian":[2.9339026E3,1.2951804E3,1.638722E3,1.2018895E3,4.3683252E2,2.1294981E2,2.2388272E2,1.5988495E2,5.3064865E1,2.1750269E2,6.3800287E0,1.5345236E2,6.432581E0,2.0557295E1,3.2507572E1,9.6837524E1,1.2066516E2,1.25772606E2,2.7679762E1,1.68025E1,3.7547953E0,2.5854418E1,6.653154E0,3.3714615E1,6.312291E1,7.376837E1,4.689679E1,9.4992065E1,3.0780539E1,2.3295034E1,4.384728E0,8.886235E0,7.916265E0,3.5717938E0,2.2282623E1,3.1043224E0,3.5488315E0,2.8786287E1,4.928327E0,1.3576763E1,4.9546146E1,6.454633E1,9.222036E0,3.5360455E1,1.1536333E1,8.869844E1,6.2936254E0,2.3670895E1,7.109645E0,5.461453E0,3.4247823E0,3.8013377E0,4.1149273E0,1.9131044E1,3.1515784E0,1.9215094E1,9.571194E0,1.0272986E1,3.3037772E0,4.5047306E1,4.4988413E0,1.0634649E1,5.3911686E1,3.0201013E0,6.201936E0,3.2113655E1,3.2467985E0,6.3216124E0,5.2147207E0,8.1437256E1,7.2611885E0,4.992438E0,1.8678457E1,3.3432171E0,3.766428E0,1.482142E1,4.393674E0,3.6867123E0,5.884482E0,3.9455614E0,6.689088E0,4.3938736E1,9.972949E0,3.6750168E1,4.4687084E1,1.4549086E1,4.129371E0,3.1313719E1,1.2625018E1,8.164467E0,2.8585701E1,3.0997667E1,1.3689417E1,2.7309145E1,4.0045724E0,5.352245E0,7.272773E0,4.952501E0,3.211966E0,1.6370085E1,1.2215618E1,2.1048702E1,9.948966E0,1.0487628E1,3.201789E0,2.0327944E1,6.9812016E0,3.276446E0,3.996327E0],"tree_param":{"num_deleted":"0","num_feature":"48","num_nodes":"109","size_leaf_vector":"1"}},{"base_weights":[4.5092274E-3,8.434116E-2,-1.330272E0,-8.436705E-2,-3.3318046E-1,2.703627E-1,-9.205887E-1,4.8991358E-1,-4.514905E-1,-1.002168E0,6.924131E-2,5.8559436E-1,-7.564479E-2,2.4551556E-1,-9.1224337E-1,-1.3629094E0,-6.9968987E-1,4.480128E-1,1.2408472E0,-4.3374723E-1,6.0613936E-1,-1.2334318E0,1.8147776E-2,-1.0532261E0,-1.5321362E0,-2.9936916E-1,-1.2901858E0,2.609147E-1,8.620497E-1,7.456823E-2,7.8626287E-1,1.7218132E-2,-5.531876E-2,-5.5714016E-4,8.644092E-1,-1.4205039E0,1.4472377E-3,-1.3238566E0,-1.19028606E-1,-2.2864126E-2,-7.991609E-2,1.9101923E-2,-9.167221E-1,-1.4326329E0,-4.153134E-1,1.4205788E-1,1.0566205E0,1.1744448E0,-6.492118E-1,-5.774072E-3,5.6456666E-2,5.82955E-2,2.2102354E-2,-2.4503913E-2,-7.904537E-2,-1.4328947E0,-3.0421058E-2,3.996371E-2,-5.431033E-2,7.810543E-1,-2.7289197E-1,-2.0341957E-1,-1.3679212E0,-1.57532E0,-9.001285E-1,4.231958E-2,-6.9825195E-2,8.780231E-1,5.1764887E-2,2.0172644E-2,7.2749905E-2,7.039321E-2,6.733748E-1,-4.319874E-5,-5.395424E-2,-7.6281E-2,-3.128364E-2,1.1568319E0,-1.58569E-2,-5.719489E-1,6.802633E-1,5.7530547E-3,-3.4264814E-2,-3.1945482E-2,-8.167863E-2,-8.347563E-2,-3.5156913E-2,-6.4385965E-2,-2.9888502E-3,1.9204317E-2,6.2213223E-2,-6.996612E-2,8.690527E-1,5.747055E-2,-2.2878947E-2,7.274208E-2,2.2391818E-2,-8.2865113E-1,2.4211077E-2,5.8078874E-2,-3.073354E-3,5.3223044E-2,-6.618357E-2,-8.733428E-3,7.6353945E-2,-1.043907E0,-5.02769E-3,-4.394972E-2,6.4737177E-3,-5.943313E-2,-1.4221956E-2],"categories":[],"categories_nodes":[],"categories_segments":[],"categories_sizes":[],"default_left":[0,0,0,0,0,0,0,0,0,0,0,0,0,0,0,0,0,0,0,0,0,0,0,0,0,0,0,0,0,0,0,0,0,0,0,0,0,0,0,0,0,0,0,0,0,0,0,0,0,0,0,0,0,0,0,0,0,0,0,0,0,0,0,0,0,0,0,0,0,0,0,0,0,0,0,0,0,0,0,0,0,0,0,0,0,0,0,0,0,0,0,0,0,0,0,0,0,0,0,0,0,0,0,0,0,0,0,0,0,0,0],"id":4,"left_children":[1,-1,3,-1,5,7,9,11,13,15,-1,17,-1,19,21,23,25,27,29,31,33,35,-1,37,39,41,43,45,47,-1,49,-1,-1,-1,51,53,-1,55,57,-1,-1,59,61,63,65,67,69,71,73,-1,-1,-1,-1,-1,-1,75,-1,-1,-1,77,79,81,83,85,87,-1,-1,89,91,-1,-1,-1,93,-1,-1,-1,-1,95,-1,97,99,-1,-1,-1,-1,-1,-1,-1,-1,-1,-1,101,103,-1,-1,-1,-1,105,-1,-1,-1,107,-1,-1,-1,109,-1,-1,-1,-1,-1],"loss_changes":[6.475917E3,0E0,5.7173975E2,0E0,1.5110359E2,3.35813E1,4.1946457E1,3.1831944E1,1.6187315E1,2.1656464E1,0E0,1.3280598E1,0E0,5.277521E0,1.286253E1,3.062378E0,2.6861767E1,9.7400875E0,1.5910416E0,4.414766E0,2.3012962E0,5.9266243E0,0E0,8.971699E0,3.2238007E0,1.3968241E1,5.007782E0,8.355213E0,1.9646658E1,0E0,3.8150754E0,0E0,0E0,0E0,5.8246326E-1,2.1942368E0,0E0,1.1285591E0,9.264208E0,0E0,0E0,1.0805523E1,7.327175E0,1.3305206E0,1.1152229E1,5.2184215E0,2.2423153E0,2.7580376E0,1.9596622E0,0E0,0E0,0E0,0E0,0E0,0E0,6.014824E-1,0E0,0E0,0E0,6.0139637E0,1.0326496E1,1.7635335E0,1.5397568E0,1.0219727E0,3.3105984E0,0E0,0E0,9.196172E-1,7.4020557E0,0E0,0E0,0E0,7.426259E0,0E0,0E0,0E0,0E0,1.3401327E0,0E0,7.8070555E0,3.2915993E0,0E0,0E0,0E0,0E0,0E0,0E0,0E0,0E0,0E0,0E0,1.0134895E1,7.024521E0,0E0,0E0,0E0,0E0,3.2783232E0,0E0,0E0,0E0,4.26654E0,0E0,0E0,0E0,1.3848763E0,0E0,0E0,0E0,0E0,0E0],"parents":[2147483647,0,0,2,2,4,4,5,5,6,6,7,7,8,8,9,9,11,11,13,13,14,14,15,15,16,16,17,17,18,18,19,19,20,20,21,21,23,23,24,24,25,25,26,26,27,27,28,28,30,30,34,34,35,35,37,37,38,38,41,41,42,42,43,43,44,44,45,45,46,46,47,47,48,48,55,55,59,59,60,60,61,61,62,62,63,63,64,64,67,67,68,68,72,72,77,77,79,79,80,80,91,91,92,92,97,97,101,101,105,105],"right_children":[2,-1,4,-1,6,8,10,12,14,16,-1,18,-1,20,22,24,26,28,30,32,34,36,-1,38,40,42,44,46,48,-1,50,-1,-1,-1,52,54,-1,56,58,-1,-1,60,62,64,66,68,70,72,74,-1,-1,-1,-1,-1,-1,76,-1,-1,-1,78,80,82,84,86,88,-1,-1,90,92,-1,-1,-1,94,-1,-1,-1,-1,96,-1,98,100,-1,-1,-1,-1,-1,-1,-1,-1,-1,-1,102,104,-1,-1,-1,-1,106,-1,-1,-1,108,-1,-1,-1,110,-1,-1,-1,-1,-1],"split_conditions":[-4.9624783E-1,8.434116E-2,9.8054534E-1,-8.436705E-2,-4.2355463E-1,-4.0828806E-1,1.3653965E1,4.9642253E0,-5.491064E-1,1.6541111E-1,6.924131E-2,2.4248633E0,-7.564479E-2,3.3136597E-1,-4.1313773E-1,1.1468773E0,-2.0016202E-1,3.4483775E-1,9.4801915E-1,-5.203237E-1,1.2049309E0,3.8854191E0,1.8147776E-2,3.4483775E-1,-1.6233644E0,3.3136597E-1,2.8508587E0,-4.706537E-1,1.5512005E0,7.456823E-2,2.243908E0,1.7218132E-2,-5.531876E-2,-5.5714016E-4,-4.9136356E-1,7.8173834E-1,1.4472377E-3,2.0205452E0,2.3233943E0,-2.2864126E-2,-7.991609E-2,-4.9207145E-1,4.3944386E-1,1.555413E0,2.3858166E0,-2.0836527E0,-4.398738E-1,1.2685902E0,-7.101078E-1,-5.774072E-3,5.6456666E-2,5.82955E-2,2.2102354E-2,-2.4503913E-2,-7.904537E-2,3.662945E-1,-3.0421058E-2,3.996371E-2,-5.431033E-2,-2.3425193E-1,-1.7263068E-1,1.0966121E0,1.0251642E0,3.6141652E-1,1.3903031E0,4.231958E-2,-6.9825195E-2,-2.1738985E0,1.0966121E0,2.0172644E-2,7.2749905E-2,7.039321E-2,-4.6924835E-1,-4.319874E-5,-5.395424E-2,-7.6281E-2,-3.128364E-2,1.4511596E0,-1.58569E-2,-2.8025752E-1,1.9862433E-1,5.7530547E-3,-3.4264814E-2,-3.1945482E-2,-8.167863E-2,-8.347563E-2,-3.5156913E-2,-6.4385965E-2,-2.9888502E-3,1.9204317E-2,6.2213223E-2,1.8378965E0,2.3233943E0,5.747055E-2,-2.2878947E-2,7.274208E-2,2.2391818E-2,1.9049678E0,2.4211077E-2,5.8078874E-2,-3.073354E-3,-1.5542415E0,-6.618357E-2,-8.733428E-3,7.6353945E-2,7.0331377E-1,-5.02769E-3,-4.394972E-2,6.4737177E-3,-5.943313E-2,-1.4221956E-2],"split_indices":[1,0,4,0,34,39,17,5,44,40,0,1,0,39,44,1,29,8,8,29,16,1,0,8,40,39,1,38,8,0,16,0,0,0,38,1,0,36,4,0,0,35,40,42,5,40,34,1,40,0,0,0,0,0,0,34,0,0,0,34,31,5,1,33,1,0,0,40,5,0,0,0,34,0,0,0,0,1,0,29,31,0,0,0,0,0,0,0,0,0,0,16,4,0,0,0,0,16,0,0,0,40,0,0,0,40,0,0,0,0,0],"split_type":[0,0,0,0,0,0,0,0,0,0,0,0,0,0,0,0,0,0,0,0,0,0,0,0,0,0,0,0,0,0,0,0,0,0,0,0,0,0,0,0,0,0,0,0,0,0,0,0,0,0,0,0,0,0,0,0,0,0,0,0,0,0,0,0,0,0,0,0,0,0,0,0,0,0,0,0,0,0,0,0,0,0,0,0,0,0,0,0,0,0,0,0,0,0,0,0,0,0,0,0,0,0,0,0,0,0,0,0,0,0,0],"sum_hessian":[2.881911E3,1.2748914E3,1.6070197E3,1.1826924E3,4.243273E2,2.0947151E2,2.1485579E2,1.6097192E2,4.8499596E1,2.0810063E2,6.7551684E0,1.543554E2,6.616519E0,1.94009E1,2.9098696E1,9.315989E1,1.14940735E2,1.2908759E2,2.5267809E1,6.561584E0,1.2839315E1,2.333293E1,5.765767E0,3.5680187E1,5.7479702E1,6.9500145E1,4.544059E1,9.019933E1,3.8888252E1,1.4678124E1,1.0589684E1,3.199593E0,3.361991E0,3.9553733E0,8.883943E0,2.0281378E1,3.051551E0,2.7259233E1,8.420956E0,3.880492E0,5.359921E1,4.6380913E1,2.3119236E1,3.8431343E1,7.0092454E0,7.961171E1,1.0587622E1,3.2466164E1,6.4220886E0,3.019632E0,7.5700517E0,4.018293E0,4.8656497E0,3.6703134E0,1.6611065E1,2.2662657E1,4.5965753E0,4.355635E0,4.0653205E0,1.24806E1,3.390031E1,9.6058235E0,1.3513412E1,2.861713E1,9.814213E0,3.0818217E0,3.9274237E0,7.6255217E0,7.198619E1,4.868741E0,5.718881E0,2.077774E1,1.1688425E1,3.0526392E0,3.3694494E0,1.9418245E1,3.2444117E0,9.326826E0,3.153775E0,2.6188427E1,7.711885E0,6.116815E0,3.489008E0,4.619069E0,8.894343E0,2.4899263E1,3.7178662E0,6.27067E0,3.5435426E0,4.235296E0,3.390226E0,6.334352E1,8.64267E0,8.276723E0,3.4117024E0,5.726714E0,3.6001115E0,2.1317347E1,4.8710814E0,4.41545E0,3.2964346E0,5.84755E1,4.8680224E0,3.5671926E0,5.0754776E0,1.6012339E1,5.3050065E0,3.526228E0,5.4949272E1,1.2863706E1,3.1486332E0],"tree_param":{"num_deleted":"0","num_feature":"48","num_nodes":"111","size_leaf_vector":"1"}},{"base_weights":[-5.4622903E-3,8.155908E-2,-1.2902213E0,-2.534961E-1,-1.6006317E0,6.087856E-1,-5.269759E-1,-1.6246703E0,-8.047784E-1,6.349514E-2,8.220142E-1,-5.9389615E-1,6.5839976E-2,-8.1400596E-2,-2.7882634E-2,1.55137E-1,-1.341715E0,2.924658E-1,-4.334495E-2,1.0974891E0,-0E0,-3.7764207E-1,-9.77036E-1,-2.2761543E-1,5.6721885E-2,-7.696887E-2,-2.6303014E-2,2.1304244E-2,6.2585E-1,6.909165E-2,8.577213E-1,-5.7486886E-1,8.0399406E-1,-2.3048323E-1,-1.0582777E0,-1.0874926E0,2.6351437E-1,1.1931349E-1,-3.7471075E-2,3.837539E-2,-3.104555E-1,4.5102768E-2,3.4110476E-3,4.5150936E-1,6.651354E-2,-5.9488293E-4,-5.1447928E-2,5.6974795E-2,1.1815219E-2,-9.568432E-2,-9.114569E-1,-6.084057E-1,-6.91077E-2,-1.3165363E0,-6.255736E-1,-2.491126E-2,4.95575E-2,-1.4845743E-2,2.58034E-2,-4.7675233E-2,1.1404746E-2,-3.1154406E-1,1.0631387E0,-2.2440842E-1,7.913969E-1,-1.2263188E0,3.611102E-3,2.0289984E-2,-9.277987E-1,-6.0835785E-1,-1.4424448E0,1.67622E-2,-1.2748845E0,1.0917207E-2,-3.4930933E-2,2.548406E-2,6.257838E-2,2.520611E-2,-8.529835E-1,7.370328E-2,4.664136E-1,-2.6270637E-2,-6.859798E-2,-4.14868E-3,-6.519072E-2,3.0984757E-2,-7.158856E-2,-7.911263E-2,-1.1263858E0,4.357275E-2,-4.6428475E-1,-7.786932E-2,-2.4190975E-2,3.3614516E-1,-3.2657418E-1,-9.94982E-1,1.6657716E-3,1.9150192E-2,6.210785E-2,-7.152147E-2,-5.778083E-1,-6.609952E-2,5.5372328E-2,-1.4701776E-1,1.4133197E0,-5.4156727E-1,5.3719175E-1,-1.674076E-3,-1.1225172E0,-2.8870681E-2,3.404121E-2,5.813902E-3,-6.7040026E-2,-2.2464594E-2,3.0419717E-2,-1.6601024E-2,3.3912815E-2,3.0299557E-2,7.935717E-2,-3.2591123E-2,1.3938596E-2,4.4667523E-2,4.089657E-3,-6.2114716E-2,-1.1756899E-2],"categories":[],"categories_nodes":[],"categories_segments":[],"categories_sizes":[],"default_left":[0,0,0,0,0,0,0,0,0,0,0,0,0,0,0,0,0,0,0,0,0,0,0,0,0,0,0,0,0,0,0,0,0,0,0,0,0,0,0,0,0,0,0,0,0,0,0,0,0,0,0,0,0,0,0,0,0,0,0,0,0,0,0,0,0,0,0,0,0,0,0,0,0,0,0,0,0,0,0,0,0,0,0,0,0,0,0,0,0,0,0,0,0,0,0,0,0,0,0,0,0,0,0,0,0,0,0,0,0,0,0,0,0,0,0,0,0,0,0,0,0,0,0,0,0],"id":5,"left_children":[1,-1,3,5,7,9,11,13,15,17,19,21,-1,-1,-1,23,25,27,-1,29,31,33,35,37,-1,-1,-1,39,41,-1,43,45,47,49,51,53,55,57,-1,-1,59,-1,-1,61,-1,-1,-1,-1,-1,63,65,67,-1,69,71,-1,-1,-1,-1,-1,-1,73,75,77,79,81,-1,-1,83,85,87,89,91,-1,-1,-1,-1,93,95,-1,97,-1,-1,-1,-1,-1,-1,-1,99,-1,101,-1,-1,103,105,107,-1,109,-1,-1,111,-1,113,115,117,119,121,-1,123,-1,-1,-1,-1,-1,-1,-1,-1,-1,-1,-1,-1,-1,-1,-1,-1],"loss_changes":[6.0103774E3,0E0,5.147556E2,8.762633E1,2.2021484E1,1.0269161E1,3.5471237E1,3.1342773E0,2.0030449E1,5.816705E0,1.4609383E1,2.2082321E1,0E0,0E0,0E0,5.799905E0,2.9636612E0,1.9114097E0,0E0,1.8711586E0,8.3167E0,1.7260525E1,1.3736687E1,2.182755E0,0E0,0E0,0E0,3.5856218E0,1.3308594E0,0E0,4.774679E0,2.5856123E0,1.0144653E0,1.322797E1,3.4618683E0,8.488129E0,5.369091E0,1.4110732E0,0E0,0E0,3.7016993E0,0E0,0E0,8.426796E0,0E0,0E0,0E0,0E0,0E0,1.4193644E1,7.6095524E0,5.238603E0,0E0,4.1795197E0,1.3424154E1,0E0,0E0,0E0,0E0,0E0,0E0,1.9125321E0,2.120018E-1,1.7128304E1,2.610382E0,9.519043E-1,0E0,0E0,3.460845E0,1.1846696E1,1.2345123E-1,7.398768E0,2.6004124E0,0E0,0E0,0E0,0E0,8.699277E0,4.028591E0,0E0,4.091876E0,0E0,0E0,0E0,0E0,0E0,0E0,0E0,2.107788E0,0E0,5.280604E0,0E0,0E0,2.2361145E1,7.1988373E0,3.1373386E0,0E0,3.8976097E0,0E0,0E0,4.7786665E0,0E0,2.5179663E0,4.779894E0,6.802063E-1,2.9662256E0,1.0981653E0,0E0,2.0652294E0,0E0,0E0,0E0,0E0,0E0,0E0,0E0,0E0,0E0,0E0,0E0,0E0,0E0,0E0,0E0,0E0],"parents":[2147483647,0,0,2,2,3,3,4,4,5,5,6,6,7,7,8,8,9,9,10,10,11,11,15,15,16,16,17,17,19,19,20,20,21,21,22,22,23,23,27,27,28,28,30,30,31,31,32,32,33,33,34,34,35,35,36,36,37,37,40,40,43,43,49,49,50,50,51,51,53,53,54,54,61,61,62,62,63,63,64,64,65,65,68,68,69,69,70,70,71,71,72,72,77,77,78,78,80,80,88,88,90,90,93,93,94,94,95,95,97,97,100,100,102,102,103,103,104,104,105,105,106,106,108,108],"right_children":[2,-1,4,6,8,10,12,14,16,18,20,22,-1,-1,-1,24,26,28,-1,30,32,34,36,38,-1,-1,-1,40,42,-1,44,46,48,50,52,54,56,58,-1,-1,60,-1,-1,62,-1,-1,-1,-1,-1,64,66,68,-1,70,72,-1,-1,-1,-1,-1,-1,74,76,78,80,82,-1,-1,84,86,88,90,92,-1,-1,-1,-1,94,96,-1,98,-1,-1,-1,-1,-1,-1,-1,100,-1,102,-1,-1,104,106,108,-1,110,-1,-1,112,-1,114,116,118,120,122,-1,124,-1,-1,-1,-1,-1,-1,-1,-1,-1,-1,-1,-1,-1,-1,-1,-1],"split_conditions":[-4.9624783E-1,8.155908E-2,4.526516E-1,-7.4639016E-1,1.8562149E0,-1.3142301E0,1.1527321E1,1.3156629E0,-4.8676136E-1,-1.4592872E0,-4.9826682E-1,-3.582582E-1,6.5839976E-2,-8.1400596E-2,-2.7882634E-2,3.5938673E0,-1.8963563E-1,1.6748353E0,-4.334495E-2,-8.7069064E-1,3.4483775E-1,-2.7396494E-1,9.958287E-1,1.2029448E0,5.6721885E-2,-7.696887E-2,-2.6303014E-2,8.854483E-1,6.4642847E-1,6.909165E-2,-1.0605717E-1,7.1531934E-1,-1.5779923E-1,1.2034287E0,1.8562149E0,1.8408391E0,-1.109852E-1,2.22313E0,-3.7471075E-2,3.837539E-2,1.0654383E0,4.5102768E-2,3.4110476E-3,1.1270082E0,6.651354E-2,-5.9488293E-4,-5.1447928E-2,5.6974795E-2,1.1815219E-2,-2.6206148E-1,-4.1417626E-1,-4.7914797E-1,-6.91077E-2,9.100958E-1,-7.5524617E-3,-2.491126E-2,4.95575E-2,-1.4845743E-2,2.58034E-2,-4.7675233E-2,1.1404746E-2,-5.6687516E-1,1.9324756E0,-4.9207145E-1,-4.9207145E-1,-5.1889116E-1,3.611102E-3,2.0289984E-2,-1.9203696E-1,-2.34176E-1,5.528419E-1,-4.297553E-1,-1.4509527E-1,1.0917207E-2,-3.4930933E-2,2.548406E-2,6.257838E-2,1.1265404E0,8.468978E-2,7.370328E-2,-5.3673584E-2,-2.6270637E-2,-6.859798E-2,-4.14868E-3,-6.519072E-2,3.0984757E-2,-7.158856E-2,-7.911263E-2,1.0811328E0,4.357275E-2,-2.6206148E-1,-7.786932E-2,-2.4190975E-2,1.577676E0,3.3882565E0,-7.018498E-1,1.6657716E-3,5.105379E-1,6.210785E-2,-7.152147E-2,2.0594423E0,-6.609952E-2,3.4483775E-1,-5.037835E-1,-7.2411996E-1,-4.568778E-1,9.4801915E-1,-1.674076E-3,2.3602037E0,-2.8870681E-2,3.404121E-2,5.813902E-3,-6.7040026E-2,-2.2464594E-2,3.0419717E-2,-1.6601024E-2,3.3912815E-2,3.0299557E-2,7.935717E-2,-3.2591123E-2,1.3938596E-2,4.4667523E-2,4.089657E-3,-6.2114716E-2,-1.1756899E-2],"split_indices":[1,0,6,30,21,40,18,14,38,40,38,31,0,0,0,0,30,0,0,40,8,35,40,6,0,0,0,14,8,0,40,0,40,46,21,45,44,0,0,0,14,0,0,14,0,0,0,0,0,44,35,30,0,14,33,0,0,0,0,0,0,40,16,35,35,44,0,0,33,30,40,35,30,0,0,0,0,0,33,0,33,0,0,0,0,0,0,0,14,0,44,0,0,16,0,30,0,40,0,0,16,0,8,44,30,30,8,0,0,0,0,0,0,0,0,0,0,0,0,0,0,0,0,0,0],"split_type":[0,0,0,0,0,0,0,0,0,0,0,0,0,0,0,0,0,0,0,0,0,0,0,0,0,0,0,0,0,0,0,0,0,0,0,0,0,0,0,0,0,0,0,0,0,0,0,0,0,0,0,0,0,0,0,0,0,0,0,0,0,0,0,0,0,0,0,0,0,0,0,0,0,0,0,0,0,0,0,0,0,0,0,0,0,0,0,0,0,0,0,0,0,0,0,0,0,0,0,0,0,0,0,0,0,0,0,0,0,0,0,0,0,0,0,0,0,0,0,0,0,0,0,0,0],"sum_hessian":[2.8564346E3,1.2560349E3,1.6003998E3,3.6926093E2,1.2311388E3,8.8531E1,2.8072995E2,1.19391E3,3.722879E1,2.5383759E1,6.314724E1,2.7160413E2,9.125797E0,1.1895652E3,4.3448615E0,1.3542621E1,2.368617E1,2.1007044E1,4.376714E0,4.7115402E1,1.6031837E1,1.7504875E2,9.655539E1,1.0215448E1,3.327173E0,1.8252937E1,5.433233E0,1.2336709E1,8.670336E0,1.918425E1,2.7931154E1,9.569343E0,6.462496E0,1.4515141E2,2.9897337E1,8.884846E1,7.706935E0,6.4841123E0,3.731336E0,3.4853463E0,8.851362E0,5.26532E0,3.4050157E0,1.6185179E1,1.17459755E1,4.828941E0,4.7404017E0,3.3181071E0,3.1443887E0,1.2224111E2,2.2910301E1,1.3848581E1,1.6048756E1,5.801496E1,3.083349E1,3.8521192E0,3.8548157E0,3.1642E0,3.3199122E0,3.767732E0,5.08363E0,7.346724E0,8.838454E0,1.0750137E2,1.4739738E1,1.724531E1,5.6649904E0,3.1769185E0,1.0671662E1,9.7577915E0,4.825717E1,1.5912301E1,1.492119E1,3.176204E0,4.1705203E0,3.32063E0,5.5178237E0,7.751863E1,2.9982748E1,3.5141966E0,1.1225541E1,3.8777208E0,1.336759E1,3.7447152E0,6.9269476E0,3.9671206E0,5.7906713E0,3.046049E1,1.779668E1,5.513167E0,1.0399135E1,1.0187823E1,4.7333665E0,4.132241E1,3.6196217E1,2.583396E1,4.1487894E0,7.851987E0,3.3735547E0,1.0298838E1,7.497843E0,3.4135168E0,6.9856176E0,2.9058846E1,1.2263565E1,2.9373808E1,6.822411E0,3.2650511E0,2.2568907E1,4.1166434E0,3.7353437E0,4.301422E0,3.196421E0,3.656028E0,3.3295896E0,2.4324783E1,4.734061E0,3.0693624E0,9.194202E0,2.6182192E1,3.191615E0,3.1654751E0,3.656936E0,1.9433195E1,3.1357121E0],"tree_param":{"num_deleted":"0","num_feature":"48","num_nodes":"125","size_leaf_vector":"1"}},{"base_weights":[2.1672052E-4,7.9082154E-2,-1.2378657E0,-2.0293616E-1,-1.5533143E0,3.0505005E-1,-7.527199E-1,-7.9108E-2,-9.5991856E-1,3.8252914E-1,-7.476648E-2,-5.007048E-1,-1.3418264E0,-0E0,-1.1672877E0,5.608938E-1,-3.1751022E-1,-5.741127E-1,7.083431E-2,-1.4462583E-2,-1.4371632E0,-4.9202472E-2,4.790771E-2,1.3483502E-2,-1.2934328E0,3.7655276E-1,9.3567467E-1,-5.39519E-1,4.1251983E-2,-4.209576E-1,-1.3167394E0,-7.424793E-2,-3.0876115E-2,-6.832121E-2,-1.4044414E-2,1.0857694E0,2.1871124E-1,7.396368E-2,7.3134875E-1,-7.800537E-1,4.229477E-1,-7.7592707E-1,8.380433E-2,-2.7441919E-2,-7.1124054E-2,1.3480983E0,6.5544094E-3,2.9061604E-1,-3.4901176E-2,1.0293169E0,1.4268896E-1,-1.136396E0,-1.85859E-2,3.608033E-2,-0E0,-1.1081603E0,1.4527853E-1,-1.5920645E-1,9.5902437E-1,2.6969045E-2,7.88139E-2,-2.288824E-2,4.5488197E-1,1.8853655E-2,1.211396E0,-3.7190685E-1,4.51086E-2,-1.3577024E0,-2.7058063E-2,-4.9062304E-2,3.1887896E-2,-1.2651861E0,-9.680337E-2,5.954915E-2,-4.4943094E-1,-6.5349656E-1,5.0953066E-1,7.215383E-2,-0E0,-7.751647E-1,3.4971672E-1,2.7816564E-1,1.0154204E0,2.3231266E-2,7.002489E-2,2.4372369E-2,-5.9640855E-2,-3.3648234E-2,-7.69635E-2,-7.1896136E-1,-6.916848E-2,-1.6293613E-2,6.8411576E-3,2.2846952E-2,-6.356199E-2,-7.0714384E-2,-6.2094677E-2,-2.479429E-2,5.907152E-2,-5.7139456E-2,-0E0,-2.4802435E-2,5.712612E-1,4.0742216E-1,-3.1631414E-2,6.7898996E-2,5.3443755E-3,-6.77933E-2,-7.650374E-4,-4.5290843E-2,5.4106295E-1,-2.859093E-2,2.756739E-2,-1.4984752E-2,4.5335677E-2,1.2726198E-2,5.5689372E-2,4.000647E-2,6.014868E-3],"categories":[],"categories_nodes":[],"categories_segments":[],"categories_sizes":[],"default_left":[0,0,0,0,0,0,0,0,0,0,0,0,0,0,0,0,0,0,0,0,0,0,0,0,0,0,0,0,0,0,0,0,0,0,0,0,0,0,0,0,0,0,0,0,0,0,0,0,0,0,0,0,0,0,0,0,0,0,0,0,0,0,0,0,0,0,0,0,0,0,0,0,0,0,0,0,0,0,0,0,0,0,0,0,0,0,0,0,0,0,0,0,0,0,0,0,0,0,0,0,0,0,0,0,0,0,0,0,0,0,0,0,0,0,0,0,0,0,0],"id":6,"left_children":[1,-1,3,5,7,9,11,-1,13,15,-1,17,19,21,23,25,27,29,-1,-1,31,-1,-1,-1,33,35,37,39,-1,41,43,-1,-1,-1,-1,45,47,-1,49,51,53,55,57,-1,-1,59,-1,61,-1,63,65,67,69,-1,-1,71,73,75,77,-1,-1,79,81,-1,83,85,-1,87,-1,-1,-1,89,91,-1,93,95,97,-1,-1,99,101,103,105,-1,-1,-1,-1,-1,-1,107,-1,-1,-1,-1,-1,109,-1,111,-1,-1,-1,-1,113,115,-1,-1,-1,-1,-1,-1,117,-1,-1,-1,-1,-1,-1,-1,-1],"loss_changes":[5.4649136E3,0E0,5.105869E2,1.0274898E2,1.8759521E1,2.7149261E1,2.5361687E1,0E0,1.1498913E1,2.3212349E1,0E0,1.8378967E1,4.649536E0,1.1730682E1,9.12896E0,9.695671E0,1.0041357E1,1.3095024E1,0E0,0E0,7.344513E-1,0E0,0E0,0E0,2.7215729E0,1.0895144E1,3.997921E0,7.8777323E0,0E0,1.8470592E1,6.621933E-1,0E0,0E0,0E0,0E0,4.1703587E0,5.677125E0,0E0,6.1904182E0,7.025612E0,8.382101E-1,1.8711739E1,9.386709E0,0E0,0E0,1.5013256E0,0E0,4.0904045E0,0E0,2.2533512E0,5.7196198E0,1.4300175E0,6.6756015E0,0E0,0E0,6.810112E0,1.1048908E1,1.17363825E1,4.3514614E0,0E0,0E0,8.0762415E0,4.7087603E0,0E0,1.748991E0,6.8322716E0,0E0,2.652855E-1,0E0,0E0,0E0,1.271534E0,4.4616506E-1,0E0,9.128406E0,6.7540894E0,5.5729666E0,0E0,0E0,2.7549386E0,3.873629E0,5.0403104E0,3.405033E0,0E0,0E0,0E0,0E0,0E0,0E0,3.9007697E0,0E0,0E0,0E0,0E0,0E0,6.3315053E0,0E0,3.2541335E0,0E0,0E0,0E0,0E0,4.9224033E0,3.5161033E0,0E0,0E0,0E0,0E0,0E0,0E0,5.8727527E-1,0E0,0E0,0E0,0E0,0E0,0E0,0E0,0E0],"parents":[2147483647,0,0,2,2,3,3,4,4,5,5,6,6,8,8,9,9,11,11,12,12,13,13,14,14,15,15,16,16,17,17,20,20,24,24,25,25,26,26,27,27,29,29,30,30,35,35,36,36,38,38,39,39,40,40,41,41,42,42,45,45,47,47,49,49,50,50,51,51,52,52,55,55,56,56,57,57,58,58,61,61,62,62,64,64,65,65,67,67,71,71,72,72,74,74,75,75,76,76,79,79,80,80,81,81,82,82,89,89,95,95,97,97,102,102,103,103,110,110],"right_children":[2,-1,4,6,8,10,12,-1,14,16,-1,18,20,22,24,26,28,30,-1,-1,32,-1,-1,-1,34,36,38,40,-1,42,44,-1,-1,-1,-1,46,48,-1,50,52,54,56,58,-1,-1,60,-1,62,-1,64,66,68,70,-1,-1,72,74,76,78,-1,-1,80,82,-1,84,86,-1,88,-1,-1,-1,90,92,-1,94,96,98,-1,-1,100,102,104,106,-1,-1,-1,-1,-1,-1,108,-1,-1,-1,-1,-1,110,-1,112,-1,-1,-1,-1,114,116,-1,-1,-1,-1,-1,-1,118,-1,-1,-1,-1,-1,-1,-1,-1],"split_conditions":[-2.9764152E-1,7.9082154E-2,4.526516E-1,-4.0828806E-1,9.8054534E-1,4.9642253E0,-3.5958276E-3,-7.9108E-2,-4.9826682E-1,-4.9207145E-1,-7.476648E-2,1.3653965E1,-7.422172E-1,2.1545932E0,-7.710932E-1,3.4483775E-1,6.689325E-1,2.3858166E0,7.083431E-2,-1.4462583E-2,1.3997775E0,-4.9202472E-2,4.790771E-2,1.3483502E-2,3.666243E0,-7.522057E-1,7.8385615E-1,-5.13742E-1,4.1251983E-2,-6.3183296E-1,-7.422172E-1,-7.424793E-2,-3.0876115E-2,-6.832121E-2,-1.4044414E-2,-5.254848E-1,9.5518523E-1,7.396368E-2,-7.4639016E-1,1.7485576E0,1.4485726E0,-1.00554906E-1,-1.6155455E-1,-2.7441919E-2,-7.1124054E-2,-1.2112631E0,6.5544094E-3,2.3233943E0,-3.4901176E-2,2.3233943E0,2.243908E0,-3.6230627E-1,-4.7356826E-1,3.608033E-2,-0E0,2.0860565E0,3.3066183E-2,-3.6781487E-1,-4.2693293E-1,2.6969045E-2,7.88139E-2,1.3270631E0,1.5640943E-1,1.8853655E-2,-5.376511E-1,1.1950773E0,4.51086E-2,-4.7985807E-1,-2.7058063E-2,-4.9062304E-2,3.1887896E-2,-4.8227432E-1,-5.682287E-1,5.954915E-2,-3.582582E-1,-4.514001E-1,-4.8508313E-1,7.215383E-2,-0E0,-1.2980874E-1,-1.3142301E0,-6.573094E-1,1.1265404E0,2.3231266E-2,7.002489E-2,2.4372369E-2,-5.9640855E-2,-3.3648234E-2,-7.69635E-2,-5.076505E-1,-6.916848E-2,-1.6293613E-2,6.8411576E-3,2.2846952E-2,-6.356199E-2,-6.573094E-1,-6.2094677E-2,5.105379E-1,5.907152E-2,-5.7139456E-2,-0E0,-2.4802435E-2,-7.2104144E-1,-7.2411996E-1,-3.1631414E-2,6.7898996E-2,5.3443755E-3,-6.77933E-2,-7.650374E-4,-4.5290843E-2,-4.8752773E-1,-2.859093E-2,2.756739E-2,-1.4984752E-2,4.5335677E-2,1.2726198E-2,5.5689372E-2,4.000647E-2,6.014868E-3],"split_indices":[6,0,6,39,4,5,29,0,38,35,0,17,22,0,22,8,40,5,0,0,44,0,0,0,4,22,0,22,0,22,22,0,0,0,0,29,40,0,30,16,16,30,29,0,0,40,0,4,0,4,16,29,44,0,0,0,30,44,38,0,0,16,40,0,29,0,0,38,0,0,0,29,30,0,31,29,22,0,0,40,40,30,0,0,0,0,0,0,0,35,0,0,0,0,0,30,0,40,0,0,0,0,22,30,0,0,0,0,0,0,29,0,0,0,0,0,0,0,0],"split_type":[0,0,0,0,0,0,0,0,0,0,0,0,0,0,0,0,0,0,0,0,0,0,0,0,0,0,0,0,0,0,0,0,0,0,0,0,0,0,0,0,0,0,0,0,0,0,0,0,0,0,0,0,0,0,0,0,0,0,0,0,0,0,0,0,0,0,0,0,0,0,0,0,0,0,0,0,0,0,0,0,0,0,0,0,0,0,0,0,0,0,0,0,0,0,0,0,0,0,0,0,0,0,0,0,0,0,0,0,0,0,0,0,0,0,0,0,0,0,0],"sum_hessian":[2.7891426E3,1.2246619E3,1.5644807E3,3.6592087E2,1.1985598E3,1.903269E2,1.7559396E2,1.1412476E3,5.7312298E1,1.8328244E2,7.0444646E0,1.2439743E2,5.1196537E1,1.0438895E1,4.68734E1,1.4633821E2,3.694423E1,1.2053543E2,3.8620036E0,4.6741433E0,4.6522396E1,5.1844196E0,5.2544756E0,3.6269703E0,4.3246433E1,9.961352E1,4.6724697E1,3.1448744E1,5.4954853E0,1.0133764E2,1.9197788E1,4.3076756E1,3.4456394E0,3.9920433E1,3.326001E0,1.6948368E1,8.266515E1,1.0926392E1,3.5798306E1,2.5395466E1,6.053277E0,5.9297844E1,4.2039795E1,3.1873274E0,1.6010462E1,1.2889682E1,4.058687E0,7.738729E1,5.2778606E0,2.3157812E1,1.26404915E1,1.687487E1,8.5205965E0,3.032781E0,3.0204961E0,4.3511143E1,1.5786703E1,3.345471E1,8.585088E0,3.6731963E0,9.216485E0,2.6693737E1,5.0693554E1,5.8439064E0,1.7313906E1,7.7607565E0,4.8797355E0,1.1245047E1,5.6298246E0,3.3153336E0,5.2052627E0,3.7360584E1,6.1505566E0,5.4207225E0,1.0365981E1,1.9335442E1,1.41192665E1,5.3228445E0,3.2622435E0,8.573045E0,1.8120691E1,3.98158E1,1.0877751E1,4.3038106E0,1.3010096E1,3.9305406E0,3.830216E0,3.4586747E0,7.7863717E0,8.056117E0,2.9304468E1,3.1223292E0,3.0282273E0,5.082648E0,5.283333E0,1.0362228E1,8.973213E0,8.318381E0,5.800885E0,5.5140953E0,3.0589502E0,3.410477E0,1.4710216E1,3.5447666E1,4.368135E0,7.4601593E0,3.4175923E0,3.667533E0,4.3885846E0,4.247303E0,6.1149254E0,4.3598995E0,3.9584813E0,4.037051E0,1.0673164E1,3.0374722E1,5.0729446E0,3.079564E0,3.0353613E0],"tree_param":{"num_deleted":"0","num_feature":"48","num_nodes":"119","size_leaf_vector":"1"}},{"base_weights":[6.479255E-3,7.686676E-2,-1.2009482E0,-2.012472E-1,-1.5124843E0,3.020331E-1,-6.928372E-1,-7.688743E-2,-9.941162E-1,3.9922556E-1,-7.363739E-2,-3.4118432E-1,-1.055301E0,-4.5113608E-1,-1.4068422E0,2.4080673E-1,1.145177E0,-1.1554244E0,-4.7792807E-2,-8.6171925E-1,-7.402068E-2,-8.4893024E-1,3.1771952E-1,-7.397245E-2,-3.7340228E-2,5.69462E-1,-6.5924905E-2,1.2497439E0,1.9305354E-2,-9.491357E-3,-1.3222562E0,-1.4780234E-1,6.737176E-2,-1.2497888E0,-4.1244245E-1,-3.2918777E-3,-5.636392E-2,-2.2890972E-2,4.9103227E-2,7.225403E-1,-5.467988E-1,2.6594862E-1,-6.1867416E-1,3.517065E-2,6.835104E-2,-7.46642E-2,-3.40197E-2,8.567868E-1,-3.2129478E-1,-8.2940716E-1,-7.6981805E-2,2.6322582E-1,-9.442363E-1,3.658409E-1,9.843412E-1,-5.2176643E-2,1.2500713E-2,-1.9514054E-1,8.2446617E-1,-1.1330799E0,-1.5786047E-1,1.1000316E-2,6.6655576E-2,-6.188213E-1,1.4208862E-1,-2.0181698E-1,-6.510128E-2,5.7644296E-2,-1.2167712E-1,-2.002514E-3,-1.226686E0,1.4734842E-1,4.9027383E-2,1.0924014E0,5.4176217E-3,-5.4388213E-1,5.2401257E-1,1.0825175E0,6.9031044E-4,-6.528363E-2,-2.7253045E-2,4.10151E-2,-6.882005E-1,-2.880178E-1,-1.1336845E0,4.5276138E-1,-6.210905E-2,2.4891231E-2,-4.63362E-2,-5.4953796E-1,3.2798037E-2,-7.342371E-2,-2.9566718E-2,3.3758488E-1,-3.8122952E-2,5.542398E-1,6.0648512E-2,-8.399861E-1,1.2674448E-2,6.1232176E-2,-3.916381E-3,6.471997E-2,9.715552E-3,-6.836485E-2,-4.1932813E-4,-6.721971E-2,-3.6489777E-2,-6.7711584E-2,-1.9226579E-2,7.3326355E-1,-2.7534014E-2,-8.095819E-3,-4.228094E-2,1.09622404E-1,5.3163286E-2,4.8534837E-2,-1.565108E-3,6.9228425E-3,-1.2688509E0,2.7417386E-1,-4.464433E-2,1.1298388E0,-0E0,3.796785E-2,-1.5500607E-2,-3.5669737E-2,-7.6538436E-2,-3.3106804E-3,5.511522E-2,2.093671E-2,7.070132E-2],"categories":[],"categories_nodes":[],"categories_segments":[],"categories_sizes":[],"default_left":[0,0,0,0,0,0,0,0,0,0,0,0,0,0,0,0,0,0,0,0,0,0,0,0,0,0,0,0,0,0,0,0,0,0,0,0,0,0,0,0,0,0,0,0,0,0,0,0,0,0,0,0,0,0,0,0,0,0,0,0,0,0,0,0,0,0,0,0,0,0,0,0,0,0,0,0,0,0,0,0,0,0,0,0,0,0,0,0,0,0,0,0,0,0,0,0,0,0,0,0,0,0,0,0,0,0,0,0,0,0,0,0,0,0,0,0,0,0,0,0,0,0,0,0,0,0,0,0,0,0,0],"id":7,"left_children":[1,-1,3,5,7,9,11,-1,13,15,-1,17,19,21,23,25,27,29,31,33,-1,35,37,-1,-1,39,41,43,-1,-1,45,47,-1,49,51,-1,-1,-1,-1,53,55,57,59,-1,-1,-1,-1,61,63,65,-1,67,69,71,73,-1,-1,75,77,79,81,-1,-1,83,85,87,-1,-1,89,-1,91,93,-1,95,-1,97,99,101,-1,-1,-1,-1,103,105,107,109,-1,-1,-1,111,-1,-1,-1,113,-1,115,-1,117,-1,-1,-1,-1,-1,-1,-1,-1,119,-1,-1,121,-1,-1,-1,123,-1,-1,-1,-1,125,127,-1,129,-1,-1,-1,-1,-1,-1,-1,-1,-1],"loss_changes":[5.084742E3,0E0,4.7848022E2,9.095024E1,1.3570068E1,3.1831049E1,2.3190628E1,0E0,1.206332E1,2.004731E1,0E0,2.2747501E1,5.9711685E0,8.398506E0,2.1019745E-1,1.4624201E1,1.7314339E0,3.670784E0,1.0080086E1,1.0654152E1,0E0,3.6774998E0,5.4714165E0,0E0,0E0,1.2352009E1,1.4017608E1,4.8215103E-1,0E0,0E0,1.1051483E0,1.2046628E1,0E0,2.6621628E0,1.1722946E1,0E0,0E0,0E0,0E0,5.2904816E0,3.8695376E0,1.2495575E1,6.488697E0,0E0,0E0,0E0,0E0,2.6389542E0,8.223984E0,4.420285E0,0E0,5.270372E0,4.4375877E0,3.5003762E0,3.0724907E0,0E0,0E0,7.011765E0,4.4439583E0,4.514141E-1,9.052972E0,0E0,0E0,5.670555E0,1.0642035E1,4.7008276E0,0E0,0E0,4.0340524E0,0E0,1.0220432E0,4.011881E0,0E0,1.1575584E0,0E0,4.672885E0,4.081352E0,2.697155E0,0E0,0E0,0E0,0E0,5.0385756E0,6.031584E0,1.559248E0,6.074976E0,0E0,0E0,0E0,6.540711E-1,0E0,0E0,0E0,2.8973835E0,0E0,1.9906254E0,0E0,6.128443E0,0E0,0E0,0E0,0E0,0E0,0E0,0E0,0E0,5.6297593E0,0E0,0E0,4.7996254E0,0E0,0E0,0E0,4.5400357E0,0E0,0E0,0E0,0E0,1.1584759E-1,4.50669E0,0E0,1.3636141E0,0E0,0E0,0E0,0E0,0E0,0E0,0E0,0E0,0E0],"parents":[2147483647,0,0,2,2,3,3,4,4,5,5,6,6,8,8,9,9,11,11,12,12,13,13,14,14,15,15,16,16,17,17,18,18,19,19,21,21,22,22,25,25,26,26,27,27,30,30,31,31,33,33,34,34,39,39,40,40,41,41,42,42,47,47,48,48,49,49,51,51,52,52,53,53,54,54,57,57,58,58,59,59,60,60,63,63,64,64,65,65,68,68,70,70,71,71,73,73,75,75,76,76,77,77,82,82,83,83,84,84,85,85,89,89,93,93,95,95,97,97,106,106,109,109,113,113,118,118,119,119,121,121],"right_children":[2,-1,4,6,8,10,12,-1,14,16,-1,18,20,22,24,26,28,30,32,34,-1,36,38,-1,-1,40,42,44,-1,-1,46,48,-1,50,52,-1,-1,-1,-1,54,56,58,60,-1,-1,-1,-1,62,64,66,-1,68,70,72,74,-1,-1,76,78,80,82,-1,-1,84,86,88,-1,-1,90,-1,92,94,-1,96,-1,98,100,102,-1,-1,-1,-1,104,106,108,110,-1,-1,-1,112,-1,-1,-1,114,-1,116,-1,118,-1,-1,-1,-1,-1,-1,-1,-1,120,-1,-1,122,-1,-1,-1,124,-1,-1,-1,-1,126,128,-1,130,-1,-1,-1,-1,-1,-1,-1,-1,-1],"split_conditions":[-4.9624783E-1,7.686676E-2,4.526516E-1,-4.300823E-1,9.8054534E-1,4.9642253E0,3.3136597E-1,-7.688743E-2,-3.6806935E-1,2.5658143E0,-7.363739E-2,-5.037835E-1,4.3852913E-1,2.702888E0,3.9365516E0,-7.4639016E-1,-3.3040032E-1,-5.211566E-1,1.3653965E1,-2.771691E-1,-7.402068E-2,1.577676E0,2.3233943E0,-7.397245E-2,-3.7340228E-2,-4.9826682E-1,1.1265404E0,1.1585581E0,1.9305354E-2,-9.491357E-3,1.555413E0,-3.9091623E-1,6.737176E-2,9.894667E-1,-3.582582E-1,-3.2918777E-3,-5.636392E-2,-2.2890972E-2,4.9103227E-2,-5.3742033E-1,-4.8676136E-1,1.0166358E0,1.6748353E0,3.517065E-2,6.835104E-2,-7.46642E-2,-3.40197E-2,1.8408391E0,-1.4509527E-1,1.1470481E0,-7.6981805E-2,-2.167386E-1,-4.4253182E-1,1.7433721E0,3.666243E0,-5.2176643E-2,1.2500713E-2,-4.8215917E-1,-6.1276907E-1,-4.627207E-1,1.6592185E0,1.1000316E-2,6.6655576E-2,-1.4591584E-1,6.3990634E-3,-3.582582E-1,-6.510128E-2,5.7644296E-2,1.0052159E-1,-2.002514E-3,8.468978E-2,1.1585581E0,4.9027383E-2,4.3247063E-2,5.4176217E-3,-4.9916324E-1,-4.8043647E-1,9.2092985E-1,6.9031044E-4,-6.528363E-2,-2.7253045E-2,4.10151E-2,2.3233943E0,-3.4522247E-1,2.0205452E0,1.0966121E0,-6.210905E-2,2.4891231E-2,-4.63362E-2,-3.8048215E-2,3.2798037E-2,-7.342371E-2,-2.9566718E-2,1.6044128E0,-3.8122952E-2,1.3883121E0,6.0648512E-2,-5.360797E-1,1.2674448E-2,6.1232176E-2,-3.916381E-3,6.471997E-2,9.715552E-3,-6.836485E-2,-4.1932813E-4,-6.721971E-2,9.4801915E-1,-6.7711584E-2,-1.9226579E-2,-1.6230723E-1,-2.7534014E-2,-8.095819E-3,-4.228094E-2,9.227115E-1,5.3163286E-2,4.8534837E-2,-1.565108E-3,6.9228425E-3,3.040982E-1,1.2038995E0,-4.464433E-2,-3.2563943E-1,-0E0,3.796785E-2,-1.5500607E-2,-3.5669737E-2,-7.6538436E-2,-3.3106804E-3,5.511522E-2,2.093671E-2,7.070132E-2],"split_indices":[1,0,6,34,4,5,39,0,34,0,0,44,29,0,0,30,33,29,17,44,0,16,4,0,0,38,0,14,0,0,42,34,0,0,31,0,0,0,0,29,38,14,0,0,0,0,0,45,30,37,0,44,29,0,4,0,0,38,30,34,16,0,0,33,29,31,0,0,44,0,33,14,0,8,0,29,29,0,0,0,0,0,4,34,36,5,0,0,0,38,0,0,0,16,0,16,0,29,0,0,0,0,0,0,0,0,8,0,0,38,0,0,0,16,0,0,0,0,0,14,0,34,0,0,0,0,0,0,0,0,0],"split_type":[0,0,0,0,0,0,0,0,0,0,0,0,0,0,0,0,0,0,0,0,0,0,0,0,0,0,0,0,0,0,0,0,0,0,0,0,0,0,0,0,0,0,0,0,0,0,0,0,0,0,0,0,0,0,0,0,0,0,0,0,0,0,0,0,0,0,0,0,0,0,0,0,0,0,0,0,0,0,0,0,0,0,0,0,0,0,0,0,0,0,0,0,0,0,0,0,0,0,0,0,0,0,0,0,0,0,0,0,0,0,0,0,0,0,0,0,0,0,0,0,0,0,0,0,0,0,0,0,0,0,0],"sum_hessian":[2.748875E3,1.2120139E3,1.5368612E3,3.6560928E2,1.171252E3,1.807466E2,1.8486269E2,1.1147612E3,5.649075E1,1.7215051E2,8.596091E0,9.4956024E1,8.990666E1,2.5404324E1,3.1086428E1,1.4319652E2,2.8953985E1,2.4283579E1,7.067245E1,6.4017525E1,2.5889132E1,1.6759256E1,8.645068E0,2.675077E1,4.335656E0,6.88717E1,7.432483E1,2.4764374E1,4.189611E0,3.9807634E0,2.0302814E1,6.684664E1,3.8258085E0,3.3273067E1,3.0744461E1,4.8133574E0,1.1945898E1,4.0627117E0,4.5823565E0,6.0954945E1,7.9167523E0,4.665242E1,2.767241E1,5.763912E0,1.9000462E1,1.4860791E1,5.4420233E0,9.179408E0,5.7667233E1,1.5295577E1,1.797749E1,1.3680167E1,1.7064295E1,2.6977673E1,3.3977272E1,4.763222E0,3.1535301E0,2.5813456E1,2.0838964E1,1.2283961E1,1.5388448E1,4.643505E0,4.535903E0,3.5045673E1,2.262156E1,7.274444E0,8.021132E0,3.6071606E0,1.0073007E1,4.4177885E0,1.2646505E1,2.0937864E1,6.0398083E0,2.9924625E1,4.0526457E0,1.7641344E1,8.1721115E0,1.5459232E1,5.3797326E0,8.421577E0,3.8623836E0,5.151564E0,1.0236883E1,2.2404345E1,1.2641327E1,1.9083744E1,3.537816E0,3.7909398E0,3.4835043E0,6.7700205E0,3.302986E0,8.096605E0,4.5499E0,1.7928055E1,3.0098093E0,6.653386E0,2.327124E1,1.2916694E1,4.72465E0,3.3769653E0,4.7951465E0,1.2021578E1,3.4376545E0,4.541648E0,5.6952353E0,3.3966203E0,1.9007725E1,9.039093E0,3.6022336E0,1.5202847E1,3.880897E0,3.7479317E0,3.0220888E0,1.4623234E1,3.304821E0,3.6034794E0,3.0499065E0,4.0715504E0,8.845143E0,1.4361191E1,4.646534E0,9.584503E0,5.618343E0,5.514178E0,9.1090555E0,4.1498895E0,4.6952543E0,1.0744257E1,3.616934E0,3.5434E0,6.0411034E0],"tree_param":{"num_deleted":"0","num_feature":"48","num_nodes":"131","size_leaf_vector":"1"}},{"base_weights":[5.1413053E-3,7.487383E-2,-1.1604474E0,-7.489331E-2,-2.7794802E-1,2.3483539E-1,-7.976145E-1,1.4318766E-1,8.013726E-2,-8.7050027E-1,7.527908E-2,3.5407728E-1,-5.1873356E-1,-1.20704E0,-6.0578066E-1,4.7141156E-1,-1.0706313E0,2.987494E-2,-8.582986E-1,-3.7903923E-1,-1.273899E0,-3.9881766E-1,-6.920212E-2,3.5576892E-1,1.0697799E0,-1.4605126E-2,-6.946364E-2,-3.2838147E-2,3.7271225E-1,-1.0858712E0,1.205726E-2,-5.077185E-2,1.8836388E-2,-7.035589E-2,-1.0356137E0,-2.448871E-1,-6.82764E-2,6.600059E-1,-7.5418116E-3,7.0606995E-1,7.336337E-2,3.607233E-2,4.2735692E-2,3.1347293E-3,-6.452476E-2,-3.395161E-1,-1.252135E0,-4.8701793E-1,7.275073E-1,2.5603357E-1,1.0299716E0,2.3795886E-1,-4.7341156E-1,1.2688145E-1,6.266733E-2,2.7077604E-2,-3.2915197E-2,-6.291008E-2,3.1369388E-2,-1.3732572E0,-2.1754844E-2,7.3763186E-1,-6.3083005E-1,5.5530667E-2,1.5147223E-1,6.802768E-1,-3.2537162E-1,1.9976301E-2,1.1275365E0,-1.0953689E-1,5.1366556E-2,-8.868906E-1,-6.1866052E-2,3.6787864E-2,-2.0256076E-2,-3.2515883E-2,-7.4066E-2,4.834529E-2,1.5098519E-2,-1.1966852E0,-3.9329523E-1,-2.172956E-2,3.8287524E-2,1.12793915E-1,9.328162E-1,1.0032159E-3,-5.527522E-1,5.960075E-2,2.8265694E-2,-4.4096825E-1,4.676419E-2,-1.6051771E-2,-5.4786738E-2,2.2307476E-2,-3.754245E-1,-2.7287468E-2,-6.553077E-2,2.7272427E-2,-8.6173415E-1,3.2836284E-2,-2.1198781E-2,6.6190384E-2,2.6382966E-2,-3.7932567E-2,-8.156636E-3,-8.523702E-3,-5.374482E-2,1.9693537E-2,-5.2842475E-2,-9.390124E-3,4.407615E-2,-1.6053295E-2,-6.550532E-2],"categories":[],"categories_nodes":[],"categories_segments":[],"categories_sizes":[],"default_left":[0,0,0,0,0,0,0,0,0,0,0,0,0,0,0,0,0,0,0,0,0,0,0,0,0,0,0,0,0,0,0,0,0,0,0,0,0,0,0,0,0,0,0,0,0,0,0,0,0,0,0,0,0,0,0,0,0,0,0,0,0,0,0,0,0,0,0,0,0,0,0,0,0,0,0,0,0,0,0,0,0,0,0,0,0,0,0,0,0,0,0,0,0,0,0,0,0,0,0,0,0,0,0,0,0,0,0,0,0,0,0,0,0],"id":8,"left_children":[1,-1,3,-1,5,7,9,11,-1,13,-1,15,17,19,21,23,25,27,29,31,33,35,-1,37,39,-1,-1,-1,41,43,-1,-1,-1,-1,45,47,-1,49,51,53,-1,55,-1,-1,-1,57,59,61,63,65,67,69,71,73,-1,-1,-1,-1,-1,75,-1,77,79,-1,81,83,85,-1,87,89,-1,91,93,-1,-1,-1,-1,-1,-1,95,97,-1,-1,99,101,-1,103,-1,-1,105,-1,-1,-1,-1,107,-1,-1,109,111,-1,-1,-1,-1,-1,-1,-1,-1,-1,-1,-1,-1,-1,-1],"loss_changes":[4.683059E3,0E0,4.495094E2,0E0,1.1200308E2,2.6144928E1,3.6268997E1,2.8035624E1,0E0,1.7163712E1,0E0,2.5873047E1,9.148818E0,4.232239E0,1.791256E1,9.254208E0,2.3570528E0,4.7849307E0,7.8828297E0,4.3528643E0,8.709259E-1,1.3333903E1,0E0,1.3339782E1,1.9628544E0,0E0,0E0,0E0,2.099703E0,6.1293526E0,0E0,0E0,0E0,0E0,4.406952E0,1.9513859E1,0E0,9.3968315E0,6.4898195E0,4.0378556E0,0E0,3.5811045E0,0E0,0E0,0E0,9.147622E0,1.6736794E0,1.2063604E1,3.3605556E0,8.339866E0,1.4714165E0,1.0327692E1,3.1934614E0,2.8725095E0,0E0,0E0,0E0,0E0,0E0,4.647255E-1,0E0,3.1179667E-1,7.3812466E0,0E0,3.2018762E0,2.5659971E0,1.1955318E0,0E0,1.8436432E-1,9.519094E0,0E0,6.415334E-1,1.9194299E0,0E0,0E0,0E0,0E0,0E0,0E0,3.604107E-1,8.695129E0,0E0,0E0,2.4109998E0,1.1985693E0,0E0,4.9759078E-1,0E0,0E0,3.263259E0,0E0,0E0,0E0,0E0,4.4104652E0,0E0,0E0,4.612572E0,4.450302E0,0E0,0E0,0E0,0E0,0E0,0E0,0E0,0E0,0E0,0E0,0E0,0E0,0E0,0E0],"parents":[2147483647,0,0,2,2,4,4,5,5,6,6,7,7,9,9,11,11,12,12,13,13,14,14,15,15,16,16,17,17,18,18,19,19,20,20,21,21,23,23,24,24,28,28,29,29,34,34,35,35,37,37,38,38,39,39,41,41,45,45,46,46,47,47,48,48,49,49,50,50,51,51,52,52,53,53,59,59,61,61,62,62,64,64,65,65,66,66,68,68,69,69,71,71,72,72,79,79,80,80,83,83,84,84,86,86,89,89,94,94,97,97,98,98],"right_children":[2,-1,4,-1,6,8,10,12,-1,14,-1,16,18,20,22,24,26,28,30,32,34,36,-1,38,40,-1,-1,-1,42,44,-1,-1,-1,-1,46,48,-1,50,52,54,-1,56,-1,-1,-1,58,60,62,64,66,68,70,72,74,-1,-1,-1,-1,-1,76,-1,78,80,-1,82,84,86,-1,88,90,-1,92,94,-1,-1,-1,-1,-1,-1,96,98,-1,-1,100,102,-1,104,-1,-1,106,-1,-1,-1,-1,108,-1,-1,110,112,-1,-1,-1,-1,-1,-1,-1,-1,-1,-1,-1,-1,-1,-1],"split_conditions":[-4.9624783E-1,7.487383E-2,9.8054534E-1,-7.489331E-2,-4.2355463E-1,1.3653965E1,1.3653965E1,-4.0828806E-1,8.013726E-2,-3.9803013E-1,7.527908E-2,3.675021E0,-5.491064E-1,-5.132681E-1,4.3852913E-1,2.5658143E0,4.9642253E0,3.3136597E-1,-3.6020124E-1,1.0654383E0,-4.886759E-1,3.675021E0,-6.920212E-2,1.1265404E0,1.2415651E0,-1.4605126E-2,-6.946364E-2,-3.2838147E-2,1.6062984E0,4.4117188E-1,1.205726E-2,-5.077185E-2,1.8836388E-2,-7.035589E-2,-4.1312638E-1,2.1545932E0,-6.82764E-2,1.0166358E0,-4.9826682E-1,1.0966121E0,7.336337E-2,7.1531934E-1,4.2735692E-2,3.1347293E-3,-6.452476E-2,-4.4533435E-1,1.8408391E0,-4.9207145E-1,-2.1793275E-1,9.158072E-1,-5.3742033E-1,-5.005679E-1,-4.627207E-1,1.1346828E0,6.266733E-2,2.7077604E-2,-3.2915197E-2,-6.291008E-2,3.1369388E-2,-4.5846063E-1,-2.1754844E-2,-3.1258407E-1,-2.771691E-1,5.5530667E-2,-2.89544E-1,8.003854E-1,-5.3670496E-1,1.9976301E-2,1.1696241E0,1.1925142E0,5.1366556E-2,1.1107775E0,1.4006878E0,3.6787864E-2,-2.0256076E-2,-3.2515883E-2,-7.4066E-2,4.834529E-2,1.5098519E-2,-4.289011E-1,1.0580035E0,-2.172956E-2,3.8287524E-2,7.306841E-1,8.504979E-1,1.0032159E-3,9.7434384E-1,5.960075E-2,2.8265694E-2,-5.373868E-1,4.676419E-2,-1.6051771E-2,-5.4786738E-2,2.2307476E-2,-4.5292917E-1,-2.7287468E-2,-6.553077E-2,1.1270082E0,2.3562041E-1,3.2836284E-2,-2.1198781E-2,6.6190384E-2,2.6382966E-2,-3.7932567E-2,-8.156636E-3,-8.523702E-3,-5.374482E-2,1.9693537E-2,-5.2842475E-2,-9.390124E-3,4.407615E-2,-1.6053295E-2,-6.550532E-2],"split_indices":[1,0,4,0,34,17,17,39,0,44,0,5,44,29,29,0,5,39,38,14,44,5,0,0,14,0,0,0,0,0,0,0,0,0,38,0,0,14,38,5,0,0,0,0,0,35,45,35,34,14,29,38,34,14,0,0,0,0,0,44,0,34,44,0,35,14,29,0,14,14,0,14,0,0,0,0,0,0,0,29,0,0,0,14,14,0,14,0,0,29,0,0,0,0,34,0,0,14,32,0,0,0,0,0,0,0,0,0,0,0,0,0,0],"split_type":[0,0,0,0,0,0,0,0,0,0,0,0,0,0,0,0,0,0,0,0,0,0,0,0,0,0,0,0,0,0,0,0,0,0,0,0,0,0,0,0,0,0,0,0,0,0,0,0,0,0,0,0,0,0,0,0,0,0,0,0,0,0,0,0,0,0,0,0,0,0,0,0,0,0,0,0,0,0,0,0,0,0,0,0,0,0,0,0,0,0,0,0,0,0,0,0,0,0,0,0,0,0,0,0,0,0,0,0,0,0,0,0,0],"sum_hessian":[2.6902476E3,1.1796764E3,1.5105712E3,1.0921738E3,4.1839737E2,2.1077237E2,2.0762498E2,1.986415E2,1.2130875E1,2.019012E2,5.7237964E0,1.5111278E2,4.752873E1,8.715855E1,1.14742645E2,1.4029764E2,1.0815142E1,1.8407196E1,2.912153E1,7.1220503E0,8.00365E1,9.193526E1,2.280739E1,1.1905111E2,2.1246525E1,3.788744E0,7.0263977E0,5.727917E0,1.2679279E1,2.4213009E1,4.908522E0,3.7516685E0,3.370382E0,4.7920555E1,3.2115944E1,8.0477486E1,1.1457771E1,6.4498535E1,5.455257E1,1.2675799E1,8.570726E0,8.220334E0,4.4589453E0,3.6923816E0,2.0520626E1,8.338448E0,2.3777494E1,6.491527E1,1.5562216E1,3.17703E1,3.2728237E1,3.590577E1,1.8646801E1,6.8455977E0,5.8302016E0,4.9679537E0,3.2523806E0,4.174387E0,4.1640606E0,2.0008202E1,3.7692926E0,6.3149614E0,5.8600307E1,8.684648E0,6.8775673E0,1.836879E1,1.3401509E1,5.206272E0,2.7521965E1,2.544082E1,1.0464951E1,8.604183E0,1.0042618E1,3.101227E0,3.7443707E0,3.6347928E0,1.637341E1,3.1881912E0,3.1267703E0,1.6007746E1,4.2592564E1,3.5860014E0,3.291566E0,6.224436E0,1.2144354E1,5.507102E0,7.8944073E0,2.3525852E1,3.9961133E0,1.9825546E1,5.6152744E0,3.1325872E0,5.471596E0,3.5497184E0,6.492899E0,3.3776429E0,1.2630104E1,2.2826805E1,1.9765757E1,3.073126E0,3.1513095E0,4.9007425E0,7.2436113E0,4.3773327E0,3.5170748E0,1.4896109E1,4.929437E0,3.1790953E0,3.3138037E0,1.8765343E1,4.0614624E0,9.839693E0,9.926064E0],"tree_param":{"num_deleted":"0","num_feature":"48","num_nodes":"113","size_leaf_vector":"1"}},{"base_weights":[7.996655E-3,7.307383E-2,-1.116652E0,-1.4431782E-1,-1.4329009E0,3.0424348E-1,-6.326593E-1,-1.4422251E0,1.1896556E-1,3.8197064E-1,-6.844201E-2,-4.1178837E-1,-1.2063563E0,-7.284615E-2,-9.016825E-1,-1.6808385E-2,2.897484E-2,2.2493558E-1,1.1604779E0,-4.9724174E-1,7.0672214E-2,-1.1264713E-2,-1.3030263E0,1.0596032E-3,-7.1659446E-2,3.9485216E-1,-4.0702865E-1,6.9195414E-1,6.905075E-2,-3.401664E-1,-1.2813945E0,-6.77209E-2,-2.5231108E-2,5.540741E-1,-5.8562476E-2,2.2957918E-1,8.8355315E-1,-7.07034E-1,1.0422618E-1,6.1222013E-2,4.7068293E-3,-5.8139706E-1,2.1112806E-1,-2.503384E-2,-6.9518894E-2,-3.6183328E-3,5.5060435E-2,8.943184E-1,9.756727E-2,1.1462835E0,2.0935525E-1,-4.662452E-1,-6.4491175E-2,5.3986305E-1,-3.600111E-2,-7.584279E-1,4.8577422E-1,6.482706E-1,-6.289931E-1,1.1393981E0,-1.6276272E-3,2.8945357E-1,-2.3237555E-1,2.8968034E-2,6.517744E-2,4.1005485E-2,-9.436759E-3,-5.1838297E-2,-1.8027373E-1,5.404557E-2,-3.3880703E-3,-8.7522185E-1,7.46495E-3,-2.1393107E-2,5.9834044E-2,3.5205983E-2,1.0435368E0,-6.6081725E-2,1.1292118E-2,2.0977514E-2,6.760186E-2,3.714773E-1,-3.6004167E-2,-6.867787E-1,5.322396E-1,2.1922098E-2,-6.6781676E-1,-5.710151E-1,-1.0910722E0,3.0334184E-2,-3.419162E-2,3.4228433E-2,-1.7958207E-2,7.444591E-2,-0E0,4.599377E-1,-1.384254E-1,-9.3761736E-1,5.8130966E-3,1.0490321E0,-2.1138573E-2,-8.019695E-3,-4.84565E-2,-8.89326E-1,2.6112902E-1,-6.817049E-2,-8.5298526E-1,3.3980038E-2,1.3024837E-2,-2.2811547E-2,1.0310671E-2,-1.5448204E-2,-6.5608405E-2,2.5807375E-2,6.52614E-2,1.2178605E-2,-6.1902072E-2,-1.3873473E-2,3.8131002E-2,-1.4341845E-2,-6.2470157E-2],"categories":[],"categories_nodes":[],"categories_segments":[],"categories_sizes":[],"default_left":[0,0,0,0,0,0,0,0,0,0,0,0,0,0,0,0,0,0,0,0,0,0,0,0,0,0,0,0,0,0,0,0,0,0,0,0,0,0,0,0,0,0,0,0,0,0,0,0,0,0,0,0,0,0,0,0,0,0,0,0,0,0,0,0,0,0,0,0,0,0,0,0,0,0,0,0,0,0,0,0,0,0,0,0,0,0,0,0,0,0,0,0,0,0,0,0,0,0,0,0,0,0,0,0,0,0,0,0,0,0,0,0,0,0,0,0,0,0,0,0,0],"id":9,"left_children":[1,-1,3,5,7,9,11,13,15,17,-1,19,21,-1,23,-1,-1,25,27,29,-1,-1,31,33,-1,35,37,39,-1,41,43,-1,-1,45,-1,47,49,51,53,-1,-1,55,57,-1,-1,-1,-1,59,61,63,65,67,-1,69,-1,71,73,75,77,79,-1,81,83,-1,-1,-1,-1,-1,85,-1,-1,87,89,-1,-1,91,93,-1,-1,-1,-1,95,-1,97,99,-1,101,103,105,-1,-1,-1,-1,-1,-1,107,109,111,-1,113,-1,-1,-1,115,117,-1,119,-1,-1,-1,-1,-1,-1,-1,-1,-1,-1,-1,-1,-1,-1],"loss_changes":[4.2789517E3,0E0,4.53417E2,7.982077E1,1.6413818E1,2.5127993E1,2.144014E1,7.2441406E0,1.7931063E0,2.1895761E1,0E0,2.050779E1,4.090225E0,0E0,1.554838E1,0E0,0E0,1.6600214E1,1.9642258E0,1.4509106E1,0E0,0E0,9.049225E-1,8.902702E0,0E0,9.482775E0,5.1664205E0,3.520493E0,0E0,1.3944217E1,8.165512E-1,0E0,0E0,3.422242E0,0E0,7.8996534E0,4.964987E0,2.1599503E0,4.9961452E0,0E0,0E0,1.40914135E1,1.2219401E1,0E0,0E0,0E0,0E0,3.5595474E0,5.0192547E0,9.613514E-1,2.5969381E0,2.3829992E0,0E0,3.1591089E0,0E0,5.6974525E0,7.632169E0,5.1191416E0,7.1786227E0,1.0911293E0,0E0,4.375804E0,1.0488642E1,0E0,0E0,0E0,0E0,0E0,4.030988E0,0E0,0E0,2.7882385E0,4.204839E0,0E0,0E0,2.7494483E0,6.176297E0,0E0,0E0,0E0,0E0,2.21699E0,0E0,3.971239E0,6.095766E0,0E0,8.592117E-1,6.891407E0,5.981331E-1,0E0,0E0,0E0,0E0,0E0,0E0,1.5020447E0,9.4643193E-1,2.8477602E0,0E0,1.9594574E-1,0E0,0E0,0E0,7.641159E0,2.3065128E0,0E0,3.7931528E0,0E0,0E0,0E0,0E0,0E0,0E0,0E0,0E0,0E0,0E0,0E0,0E0,0E0,0E0],"parents":[2147483647,0,0,2,2,3,3,4,4,5,5,6,6,7,7,8,8,9,9,11,11,12,12,14,14,17,17,18,18,19,19,22,22,23,23,25,25,26,26,27,27,29,29,30,30,33,33,35,35,36,36,37,37,38,38,41,41,42,42,47,47,48,48,49,49,50,50,51,51,53,53,55,55,56,56,57,57,58,58,59,59,61,61,62,62,68,68,71,71,72,72,75,75,76,76,81,81,83,83,84,84,86,86,87,87,88,88,95,95,96,96,97,97,99,99,103,103,104,104,106,106],"right_children":[2,-1,4,6,8,10,12,14,16,18,-1,20,22,-1,24,-1,-1,26,28,30,-1,-1,32,34,-1,36,38,40,-1,42,44,-1,-1,46,-1,48,50,52,54,-1,-1,56,58,-1,-1,-1,-1,60,62,64,66,68,-1,70,-1,72,74,76,78,80,-1,82,84,-1,-1,-1,-1,-1,86,-1,-1,88,90,-1,-1,92,94,-1,-1,-1,-1,96,-1,98,100,-1,102,104,106,-1,-1,-1,-1,-1,-1,108,110,112,-1,114,-1,-1,-1,116,118,-1,120,-1,-1,-1,-1,-1,-1,-1,-1,-1,-1,-1,-1,-1,-1],"split_conditions":[-4.9624783E-1,7.307383E-2,4.526516E-1,-4.0828806E-1,3.960259E0,4.9642253E0,6.3990634E-3,2.771425E0,6.064303E0,1.2320093E0,-6.844201E-2,1.3653965E1,-7.422172E-1,-7.284615E-2,2.703531E0,-1.6808385E-2,2.897484E-2,-4.9207145E-1,2.291667E0,2.3858166E0,7.0672214E-2,-1.1264713E-2,1.2789165E0,2.3858166E0,-7.1659446E-2,3.4483775E-1,-2.4695385E-1,2.1202395E0,6.905075E-2,-5.843979E-1,-7.5569266E-1,-6.77209E-2,-2.5231108E-2,1.0966121E0,-5.8562476E-2,-7.522057E-1,1.6062984E0,1.1470481E0,2.3562041E-1,6.1222013E-2,4.7068293E-3,2.1545932E0,-3.582582E-1,-2.503384E-2,-6.9518894E-2,-3.6183328E-3,5.5060435E-2,-4.8676136E-1,-4.9826682E-1,-5.657526E-1,-6.9563055E-1,1.0037374E0,-6.4491175E-2,-1.109852E-1,-3.600111E-2,1.1696241E0,-2.6585642E-1,1.0286692E0,-3.375996E-1,1.0456977E0,-1.6276272E-3,1.9324756E0,-5.1889116E-1,2.8968034E-2,6.517744E-2,4.1005485E-2,-9.436759E-3,-5.1838297E-2,1.4485726E0,5.404557E-2,-3.3880703E-3,1.0227923E0,3.3136597E-1,-2.1393107E-2,5.9834044E-2,-4.6835262E-1,1.2195021E0,-6.6081725E-2,1.1292118E-2,2.0977514E-2,6.760186E-2,-6.060874E-1,-3.6004167E-2,1.6592185E0,1.0580035E0,2.1922098E-2,-4.1417626E-1,9.8250425E-1,-4.5846063E-1,3.0334184E-2,-3.419162E-2,3.4228433E-2,-1.7958207E-2,7.444591E-2,-0E0,8.5239303E-1,-5.7189053E-1,9.2476004E-1,5.8130966E-3,1.0270368E0,-2.1138573E-2,-8.019695E-3,-4.84565E-2,-5.491064E-1,-2.6585642E-1,-6.817049E-2,-3.830182E-1,3.3980038E-2,1.3024837E-2,-2.2811547E-2,1.0310671E-2,-1.5448204E-2,-6.5608405E-2,2.5807375E-2,6.52614E-2,1.2178605E-2,-6.1902072E-2,-1.3873473E-2,3.8131002E-2,-1.4341845E-2,-6.2470157E-2],"split_indices":[1,0,6,39,21,5,29,0,21,14,0,17,22,0,6,0,0,35,0,5,0,0,44,5,0,8,44,16,0,22,22,0,0,5,0,22,0,37,32,0,0,0,31,0,0,0,0,38,38,22,22,14,0,44,0,14,38,14,44,14,0,16,44,0,0,0,0,0,16,0,0,14,39,0,0,38,14,0,0,0,0,22,0,16,0,0,35,14,44,0,0,0,0,0,0,0,22,14,0,16,0,0,0,44,38,0,35,0,0,0,0,0,0,0,0,0,0,0,0,0,0],"split_type":[0,0,0,0,0,0,0,0,0,0,0,0,0,0,0,0,0,0,0,0,0,0,0,0,0,0,0,0,0,0,0,0,0,0,0,0,0,0,0,0,0,0,0,0,0,0,0,0,0,0,0,0,0,0,0,0,0,0,0,0,0,0,0,0,0,0,0,0,0,0,0,0,0,0,0,0,0,0,0,0,0,0,0,0,0,0,0,0,0,0,0,0,0,0,0,0,0,0,0,0,0,0,0,0,0,0,0,0,0,0,0,0,0,0,0,0,0,0,0,0,0],"sum_hessian":[2.6156301E3,1.140916E3,1.474714E3,3.6236478E2,1.1123492E3,1.8896503E2,1.7339977E2,1.10584E3,6.509267E0,1.8137048E2,7.5945415E0,1.2656489E2,4.683487E1,1.0747366E3,3.1103428E1,3.3004274E0,3.2088394E0,1.5210608E2,2.9264402E1,1.2165178E2,4.9131074E0,4.5925064E0,4.2242363E1,1.1826486E1,1.9276943E1,1.2029558E2,3.1810507E1,1.0835586E1,1.8428818E1,1.0265089E2,1.9000895E1,3.891578E1,3.326584E0,8.452056E0,3.3744295E0,9.11456E1,2.9149979E1,1.9928867E1,1.1881639E1,5.088085E0,5.7475004E0,7.1493965E1,3.1156923E1,3.1251402E0,1.5875753E1,4.259786E0,4.19227E0,1.4019432E1,7.712617E1,2.0365242E1,8.784738E0,1.5497458E1,4.4314094E0,8.07836E0,3.803279E0,6.164999E1,9.843973E0,2.0721987E1,1.04349375E1,1.0991655E1,3.0277767E0,4.903466E1,2.8091503E1,5.5777926E0,1.4787449E1,3.1472638E0,5.637474E0,4.1810493E0,1.1316409E1,3.948315E0,4.130045E0,5.3482117E1,8.167873E0,4.4204373E0,5.4235353E0,8.649119E0,1.2072867E1,5.5272913E0,4.907646E0,3.2916765E0,7.6999784E0,4.6026173E1,3.0084872E0,1.7765955E1,1.0325547E1,4.941283E0,6.375126E0,2.3903147E1,2.9578972E1,4.5183806E0,3.649493E0,3.0858047E0,5.5633144E0,8.207657E0,3.8652105E0,3.9472412E1,6.553761E0,1.3504591E1,4.261365E0,6.7040143E0,3.6215334E0,3.0697486E0,3.3053772E0,1.732678E1,6.576366E0,1.1396483E1,1.818249E1,1.7399635E1,2.2072777E1,3.3921163E0,3.1616445E0,5.823011E0,7.6815796E0,3.2821555E0,3.4218588E0,4.081537E0,1.3245244E1,3.290111E0,3.286255E0,8.301888E0,9.8806E0],"tree_param":{"num_deleted":"0","num_feature":"48","num_nodes":"121","size_leaf_vector":"1"}},{"base_weights":[-4.8883455E-3,7.144189E-2,-1.0966276E0,-1.6750953E-1,-1.3995363E0,3.1246847E-1,-6.441613E-1,-1.4100869E0,2.627699E-1,4.0853E-1,-8.1443524E-1,-8.876064E-1,-1.9603832E-1,-7.14647E-2,-9.846035E-1,4.2132314E-2,-1.4903516E-2,2.9159874E-1,1.2113248E0,-0E0,-1.156304E0,-9.4838464E-1,1.1749136E-2,4.6199793E-1,-4.132528E-1,-4.954432E-1,-6.663445E-2,1.00252956E-1,7.574108E-1,3.0935941E-2,6.5442786E-2,-6.794207E-2,-2.4827588E-2,-7.0450574E-1,-1.1706787E0,-1.0452857E-1,8.6953205E-1,-6.1322242E-2,-1.9903234E-1,-8.681533E-1,4.729433E-2,5.128875E-1,-2.9194726E-2,9.0804505E-1,-1.9244207E-2,-8.5552824E-1,4.14281E-2,-5.4311264E-1,-1.2798057E0,-3.4079332E-2,2.4587955E-2,5.9814777E-2,8.795087E-3,-0E0,-5.722182E-2,-8.330556E-4,-1.1190741E0,2.5454175E-1,4.670086E-2,-1.5140414E-1,5.712748E-1,6.736078E-2,6.385564E-1,-9.2853975E-1,5.2207976E-4,2.5004266E-2,-5.4493707E-2,-2.4548527E-2,-6.73788E-2,-3.2365116E-1,6.340951E-1,-2.7671142E-2,-6.446499E-2,7.5585234E-1,-2.0503168E-1,4.081584E-2,-2.4127908E-1,8.725402E-1,-1.5920268E-2,7.848033E-1,-3.5839714E-3,-7.308745E-1,-7.164209E-2,-4.8655766E-1,2.6742471E-2,5.229264E-2,4.4482327E-3,7.039921E-3,5.364954E-2,-5.3893436E-2,1.835359E-2,-1.3785236E-1,-9.9211144E-1,5.308881E-3,5.829806E-2,5.054174E-1,6.046725E-2,-8.667192E-1,1.0617E-2,-5.5910934E-2,-6.245168E-2,-6.518366E-3,-6.744037E-1,-7.002406E-2,-1.5290173E-2,8.618081E-1,-6.4259255E-3,-1.1254532E0,-4.6945608E-1,-5.9786355E-1,4.1165566E-1,-4.345654E-2,5.6994855E-3,-5.6891035E-2,1.7328663E-2,5.635963E-2,1.085688E-2,-7.2638355E-2,-3.0548338E-2,1.1302001E-2,-4.6861794E-2,-5.699316E-3,-4.546689E-2,-4.3543647E-3,4.3665584E-2],"categories":[],"categories_nodes":[],"categories_segments":[],"categories_sizes":[],"default_left":[0,0,0,0,0,0,0,0,0,0,0,0,0,0,0,0,0,0,0,0,0,0,0,0,0,0,0,0,0,0,0,0,0,0,0,0,0,0,0,0,0,0,0,0,0,0,0,0,0,0,0,0,0,0,0,0,0,0,0,0,0,0,0,0,0,0,0,0,0,0,0,0,0,0,0,0,0,0,0,0,0,0,0,0,0,0,0,0,0,0,0,0,0,0,0,0,0,0,0,0,0,0,0,0,0,0,0,0,0,0,0,0,0,0,0,0,0,0,0,0,0,0,0,0,0],"id":10,"left_children":[1,-1,3,5,7,9,11,13,15,17,19,21,23,-1,25,-1,-1,27,29,-1,31,33,-1,35,37,39,-1,41,43,-1,-1,-1,-1,45,47,49,51,-1,53,55,-1,57,59,61,-1,63,-1,65,67,-1,-1,-1,-1,69,-1,-1,71,73,-1,75,77,-1,79,81,-1,-1,-1,-1,-1,83,85,-1,-1,87,89,-1,91,93,-1,95,-1,97,-1,99,-1,-1,-1,-1,-1,-1,-1,101,103,-1,-1,105,-1,107,-1,109,-1,111,113,-1,-1,115,-1,117,119,121,123,-1,-1,-1,-1,-1,-1,-1,-1,-1,-1,-1,-1,-1,-1],"loss_changes":[3.981239E3,0E0,4.060105E2,8.173735E1,1.958081E1,1.956888E1,1.9264297E1,7.194336E0,2.793557E0,1.4969679E1,3.9601994E0,8.186455E0,9.405446E0,0E0,7.70068E0,0E0,0E0,1.27892885E1,1.8404388E-1,0E0,4.7946453E-1,4.9519653E0,0E0,3.9457886E0,8.172846E0,1.2939398E1,0E0,5.6344457E0,7.6292534E0,0E0,0E0,0E0,0E0,1.3488733E1,2.9460297E0,2.9820092E0,1.857285E0,0E0,7.536659E0,3.8228893E0,0E0,2.3790674E0,5.926493E0,3.377512E0,0E0,3.3126678E0,0E0,6.3893404E0,1.6503296E0,0E0,0E0,0E0,0E0,7.219818E0,0E0,0E0,4.687481E-1,4.151121E0,0E0,6.0126987E0,3.985344E0,0E0,2.7525816E0,3.4172554E0,0E0,0E0,0E0,0E0,0E0,3.5188856E0,2.4594302E0,0E0,0E0,1.3853388E0,5.2640862E0,0E0,4.615908E0,2.1168957E0,0E0,1.7267933E0,0E0,4.851721E0,0E0,6.4438357E0,0E0,0E0,0E0,0E0,0E0,0E0,0E0,3.898288E0,1.4491587E0,0E0,0E0,3.4871986E0,0E0,2.5690193E0,0E0,3.827963E0,0E0,5.0008593E0,5.640644E0,0E0,0E0,1.2614388E0,0E0,1.99119E0,4.9566183E0,8.5198116E-1,2.006352E0,0E0,0E0,0E0,0E0,0E0,0E0,0E0,0E0,0E0,0E0,0E0,0E0,0E0,0E0],"parents":[2147483647,0,0,2,2,3,3,4,4,5,5,6,6,7,7,8,8,9,9,10,10,11,11,12,12,14,14,17,17,18,18,20,20,21,21,23,23,24,24,25,25,27,27,28,28,33,33,34,34,35,35,36,36,38,38,39,39,41,41,42,42,43,43,45,45,47,47,48,48,53,53,56,56,57,57,59,59,60,60,62,62,63,63,69,69,70,70,73,73,74,74,76,76,77,77,79,79,81,81,83,83,91,91,92,92,95,95,97,97,99,99,101,101,102,102,105,105,107,107,108,108,109,109,110,110],"right_children":[2,-1,4,6,8,10,12,14,16,18,20,22,24,-1,26,-1,-1,28,30,-1,32,34,-1,36,38,40,-1,42,44,-1,-1,-1,-1,46,48,50,52,-1,54,56,-1,58,60,62,-1,64,-1,66,68,-1,-1,-1,-1,70,-1,-1,72,74,-1,76,78,-1,80,82,-1,-1,-1,-1,-1,84,86,-1,-1,88,90,-1,92,94,-1,96,-1,98,-1,100,-1,-1,-1,-1,-1,-1,-1,102,104,-1,-1,106,-1,108,-1,110,-1,112,114,-1,-1,116,-1,118,120,122,124,-1,-1,-1,-1,-1,-1,-1,-1,-1,-1,-1,-1,-1,-1],"split_conditions":[-4.9624783E-1,7.144189E-2,4.526516E-1,-4.2681846E-1,3.666243E0,3.675021E0,1.8408391E0,9.8054534E-1,-5.793545E-1,2.8399618E0,-7.4645233E-1,9.958287E-1,-4.0828806E-1,-7.14647E-2,-3.6806935E-1,4.2132314E-2,-1.4903516E-2,3.4483775E-1,-1.3768665E0,-0E0,3.7994778E0,3.3136597E-1,1.1749136E-2,1.5428861E0,-4.2824537E-1,-4.5846063E-1,-6.663445E-2,4.4117188E-1,2.154382E0,3.0935941E-2,6.5442786E-2,-6.794207E-2,-2.4827588E-2,7.1479225E-1,-3.3611673E-1,5.856275E-1,4.4543374E-1,-6.1322242E-2,2.3858166E0,-7.325918E-1,4.729433E-2,8.999367E-2,1.0966121E0,7.8385615E-1,-1.9244207E-2,-3.822295E-1,4.14281E-2,-3.7861E-1,-7.4645233E-1,-3.4079332E-2,2.4587955E-2,5.9814777E-2,8.795087E-3,3.4483775E-1,-5.722182E-2,-8.330556E-4,-7.4639016E-1,-7.9087275E-1,4.670086E-2,-1.8827857E0,-4.9596572E-1,6.736078E-2,2.9210234E-1,-2.2102378E-2,5.2207976E-4,2.5004266E-2,-5.4493707E-2,-2.4548527E-2,-6.73788E-2,-6.212129E-1,1.2496098E0,-2.7671142E-2,-6.446499E-2,-1.3768665E0,8.1519276E-1,4.081584E-2,1.8378965E0,-1.159842E0,-1.5920268E-2,-5.304597E-1,-3.5839714E-3,-5.231805E-3,-7.164209E-2,1.555413E0,2.6742471E-2,5.229264E-2,4.4482327E-3,7.039921E-3,5.364954E-2,-5.3893436E-2,1.835359E-2,5.406933E-1,-1.8131453E-1,5.308881E-3,5.829806E-2,-6.0018474E-1,6.046725E-2,-3.060564E-1,1.0617E-2,4.3247063E-2,-6.245168E-2,-1.3142301E0,-5.9049886E-1,-7.002406E-2,-1.5290173E-2,-4.9366465E-1,-6.4259255E-3,1.5428861E0,-5.24544E-1,1.1265404E0,1.4006878E0,-4.345654E-2,5.6994855E-3,-5.6891035E-2,1.7328663E-2,5.635963E-2,1.085688E-2,-7.2638355E-2,-3.0548338E-2,1.1302001E-2,-4.6861794E-2,-5.699316E-3,-4.546689E-2,-4.3543647E-3,4.3665584E-2],"split_indices":[1,0,6,34,4,5,45,4,40,0,22,40,39,0,34,0,0,8,40,0,0,39,0,16,44,44,0,0,8,0,0,0,0,40,40,40,40,0,5,22,0,40,5,0,0,22,0,38,22,0,0,0,0,8,0,0,30,40,0,40,38,0,40,34,0,0,0,0,0,22,8,0,0,40,16,0,16,40,0,22,0,44,0,42,0,0,0,0,0,0,0,40,40,0,0,22,0,34,0,8,0,40,30,0,0,38,0,16,40,0,0,0,0,0,0,0,0,0,0,0,0,0,0,0,0],"split_type":[0,0,0,0,0,0,0,0,0,0,0,0,0,0,0,0,0,0,0,0,0,0,0,0,0,0,0,0,0,0,0,0,0,0,0,0,0,0,0,0,0,0,0,0,0,0,0,0,0,0,0,0,0,0,0,0,0,0,0,0,0,0,0,0,0,0,0,0,0,0,0,0,0,0,0,0,0,0,0,0,0,0,0,0,0,0,0,0,0,0,0,0,0,0,0,0,0,0,0,0,0,0,0,0,0,0,0,0,0,0,0,0,0,0,0,0,0,0,0,0,0,0,0,0,0],"sum_hessian":[2.5415286E3,1.0985101E3,1.4430184E3,3.552465E2,1.0877719E3,1.7707272E2,1.7817375E2,1.0811218E3,6.650043E0,1.6383318E2,1.3239548E1,1.1467311E2,6.3500637E1,1.031944E3,4.917786E1,3.1101549E0,3.539888E0,1.4430255E2,1.9530628E1,4.213394E0,9.026154E0,1.0901517E2,5.6579437E0,1.5365282E1,4.8135357E1,2.157267E1,2.760519E1,1.03299286E2,4.1003265E1,3.942823E0,1.5587806E1,5.9793563E0,3.0467975E0,5.418639E1,5.482878E1,6.637043E0,8.728239E0,8.953904E0,3.918145E1,1.7511473E1,4.061198E0,2.4144705E1,7.915459E1,3.6484653E1,4.5186105E0,4.9788868E1,4.397522E0,9.142934E0,4.5685844E1,3.3854368E0,3.2516062E0,5.342551E0,3.3856878E0,3.3211792E1,5.969657E0,4.3192306E0,1.3192243E1,1.6106136E1,8.038568E0,6.6528824E1,1.2625759E1,1.2212461E1,2.4272192E1,4.5957344E1,3.831525E0,3.1105704E0,6.0323634E0,4.383442E0,4.1302402E1,2.2334682E1,1.0877111E1,4.170951E0,9.021292E0,7.499005E0,8.607132E0,4.872212E0,6.1656612E1,9.530266E0,3.095493E0,2.0157341E1,4.1148515E0,3.4918377E1,1.1038964E1,1.9234526E1,3.1001565E0,5.5688043E0,5.308307E0,3.1497362E0,4.349269E0,3.1270523E0,5.480079E0,5.5349094E1,6.30752E0,3.110049E0,6.420217E0,1.3620138E1,6.5372014E0,3.0686005E1,4.2323728E0,1.3061733E1,6.1727924E0,4.542801E1,9.921085E0,3.210743E0,3.0967772E0,8.589513E0,5.030626E0,1.7320543E1,1.3365462E1,6.019631E0,7.0421023E0,4.908675E0,4.0519333E1,6.812448E0,3.1086376E0,5.4445977E0,3.1449146E0,9.352462E0,7.9680805E0,5.496403E0,7.869059E0,3.018062E0,3.0015688E0,3.6709719E0,3.3711305E0],"tree_param":{"num_deleted":"0","num_feature":"48","num_nodes":"125","size_leaf_vector":"1"}},{"base_weights":[3.8404185E-3,6.9958515E-2,-1.0662155E0,-1.6103432E-1,-1.3703271E0,2.9541776E-1,-6.0728127E-1,-6.9874845E-2,-6.914467E-1,3.734613E-1,-5.8990777E-2,-6.705308E-1,5.9900947E-2,-9.7742826E-2,-1.1950234E0,2.3632357E-1,1.0726964E0,-1.2126836E0,-5.1089424E-1,1.9952166E-1,-6.0569394E-2,-3.0359102E-2,-6.7612454E-2,3.9261594E-1,-1.6093236E-1,1.2275316E0,4.813071E-1,-1.1876452E-2,-6.602111E-2,-3.322762E-1,-1.2902614E0,5.3481933E-2,-3.0422884E-1,2.1851453E-1,8.398055E-1,1.01197995E-1,-7.5143754E-1,3.094018E-2,6.638266E-2,-3.2205004E-4,4.4434834E-2,-1.4733338E-1,-1.1870713E0,-2.9161483E-2,-6.973306E-2,1.681639E-2,-5.1401228E-2,9.231428E-2,7.938473E-1,1.1413449E0,3.399612E-1,-3.5949987E-1,5.9808534E-2,-7.07038E-2,-8.315273E-2,-5.6046677E-1,2.9005286E-1,-6.966513E-1,-7.143266E-2,2.799394E-1,-3.7233296E-1,9.8155427E-1,8.795554E-3,6.749701E-2,2.7224828E-2,-1.809598E-2,6.733114E-1,-1.0024532E0,2.7485535E-1,1.8689452E-2,-2.6611304E-2,-8.1822354E-1,2.2286328E-2,-5.775781E-2,1.1313355E0,-5.7069506E-2,-1.0731887E-2,-5.3719014E-2,7.000944E-1,-7.715471E-1,6.1955296E-2,2.4737602E-2,6.280069E-2,5.006675E-2,5.1487656E-3,-1.5170989E-3,-6.830817E-2,5.5462815E-2,-2.0090713E-1,-1.8195857E-1,-1.0649983E0,-3.421125E-2,3.149244E-1,-6.115912E-1,4.9323985E-1,1.7296601E-2,7.436613E-2,-6.2886864E-1,2.088646E-1,8.4371775E-1,3.5632718E-3,-6.4767585E-3,-6.076902E-2,-2.0287562E-2,3.5840083E-2,-3.7275966E-2,1.8043999E-2,-3.606208E-2,1.3448427E-2,-6.8241876E-1,-7.190927E-2,-3.329731E-2,8.2700753E-1,7.4166055E-3,-9.684187E-1,5.643337E-2,-1.8341118E-2,-5.0667197E-2,1.2865512E-3,2.052235E-2,-2.5655523E-2,5.1447004E-2,4.13485E-3,3.6916013E-3,-5.075213E-2,5.6728125E-2,1.324062E-2,-6.004275E-2,-9.989498E-3,-3.5155814E-2,2.502284E-2],"categories":[],"categories_nodes":[],"categories_segments":[],"categories_sizes":[],"default_left":[0,0,0,0,0,0,0,0,0,0,0,0,0,0,0,0,0,0,0,0,0,0,0,0,0,0,0,0,0,0,0,0,0,0,0,0,0,0,0,0,0,0,0,0,0,0,0,0,0,0,0,0,0,0,0,0,0,0,0,0,0,0,0,0,0,0,0,0,0,0,0,0,0,0,0,0,0,0,0,0,0,0,0,0,0,0,0,0,0,0,0,0,0,0,0,0,0,0,0,0,0,0,0,0,0,0,0,0,0,0,0,0,0,0,0,0,0,0,0,0,0,0,0,0,0,0,0,0,0,0,0],"id":11,"left_children":[1,-1,3,5,7,9,11,-1,13,15,-1,17,-1,19,21,23,25,27,29,31,-1,-1,-1,33,35,37,39,-1,-1,41,43,-1,45,47,49,51,53,-1,-1,-1,-1,55,57,-1,-1,-1,-1,59,61,63,65,67,-1,-1,69,71,73,75,-1,77,79,81,-1,-1,-1,-1,83,85,87,-1,-1,89,91,93,95,-1,-1,97,99,101,103,-1,-1,-1,-1,-1,-1,-1,105,107,109,-1,111,113,115,-1,-1,117,119,121,-1,-1,-1,-1,-1,-1,-1,-1,-1,123,-1,-1,125,-1,127,-1,129,-1,-1,-1,-1,-1,-1,-1,-1,-1,-1,-1,-1,-1,-1],"loss_changes":[3.6999573E3,0E0,3.8568896E2,7.229744E1,1.818396E1,2.0567282E1,2.1234177E1,0E0,1.2463112E1,1.5679239E1,0E0,1.42684555E1,0E0,7.191921E0,1.0921211E0,8.868923E0,1.716629E0,3.5977516E0,1.838329E1,7.9050407E0,0E0,0E0,0E0,7.6509085E0,6.4050026E0,2.4360275E-1,1.5633333E0,0E0,0E0,1.745103E1,8.313713E-1,0E0,5.768496E0,5.2777963E0,3.6940975E0,1.5037042E1,5.3465123E0,0E0,0E0,0E0,0E0,1.710195E1,1.131424E0,0E0,0E0,0E0,0E0,5.562565E0,1.2430506E0,1.1866283E0,3.1081405E0,8.90072E0,0E0,0E0,1.7433783E0,7.3964777E0,1.3633795E1,1.4639564E0,0E0,6.4668155E0,3.2942963E0,5.1080227E-1,0E0,0E0,0E0,0E0,1.4059391E0,3.6046743E0,4.784285E0,0E0,0E0,4.9940243E0,3.4360304E0,1.0510486E1,3.1015263E0,0E0,0E0,4.115232E0,1.681694E0,2.4828043E0,3.2555716E0,0E0,0E0,0E0,0E0,0E0,0E0,0E0,2.7375567E0,2.8593905E0,2.2416115E0,0E0,6.557028E0,4.890076E0,5.72737E0,0E0,0E0,2.2766502E0,2.900203E0,2.1018248E0,0E0,0E0,0E0,0E0,0E0,0E0,0E0,0E0,0E0,3.6695132E0,0E0,0E0,1.0030856E0,0E0,1.7509842E0,0E0,4.078528E0,0E0,0E0,0E0,0E0,0E0,0E0,0E0,0E0,0E0,0E0,0E0,0E0,0E0,0E0],"parents":[2147483647,0,0,2,2,3,3,4,4,5,5,6,6,8,8,9,9,11,11,13,13,14,14,15,15,16,16,17,17,18,18,19,19,23,23,24,24,25,25,26,26,29,29,30,30,32,32,33,33,34,34,35,35,36,36,41,41,42,42,47,47,48,48,49,49,50,50,51,51,54,54,55,55,56,56,57,57,59,59,60,60,61,61,66,66,67,67,68,68,71,71,72,72,73,73,74,74,77,77,78,78,79,79,80,80,88,88,89,89,90,90,92,92,93,93,94,94,97,97,98,98,99,99,109,109,112,112,114,114,116,116],"right_children":[2,-1,4,6,8,10,12,-1,14,16,-1,18,-1,20,22,24,26,28,30,32,-1,-1,-1,34,36,38,40,-1,-1,42,44,-1,46,48,50,52,54,-1,-1,-1,-1,56,58,-1,-1,-1,-1,60,62,64,66,68,-1,-1,70,72,74,76,-1,78,80,82,-1,-1,-1,-1,84,86,88,-1,-1,90,92,94,96,-1,-1,98,100,102,104,-1,-1,-1,-1,-1,-1,-1,106,108,110,-1,112,114,116,-1,-1,118,120,122,-1,-1,-1,-1,-1,-1,-1,-1,-1,124,-1,-1,126,-1,128,-1,130,-1,-1,-1,-1,-1,-1,-1,-1,-1,-1,-1,-1,-1,-1],"split_conditions":[-2.9764152E-1,6.9958515E-2,4.526516E-1,-4.300823E-1,1.1515423E0,4.9642253E0,1.3653965E1,-6.9874845E-2,-3.6806935E-1,2.5658143E0,-5.8990777E-2,-5.037835E-1,5.9900947E-2,2.703531E0,-3.438795E-1,-5.491064E-1,-7.018498E-1,-5.211566E-1,4.3852913E-1,-7.325918E-1,-6.0569394E-2,-3.0359102E-2,-6.7612454E-2,3.4483775E-1,1.4006878E0,1.1346828E0,-5.236884E-1,-1.1876452E-2,-6.602111E-2,2.3858166E0,-7.0692426E-1,5.3481933E-2,-1.51434E-1,1.7433721E0,1.1585581E0,1.1346828E0,2.0175195E0,3.094018E-2,6.638266E-2,-3.2205004E-4,4.4434834E-2,1.0875181E0,2.9084985E0,-2.9161483E-2,-6.973306E-2,1.681639E-2,-5.1401228E-2,1.1265404E0,-5.2915E-1,9.4801915E-1,1.1978651E0,-4.7755697E-1,5.9808534E-2,-7.07038E-2,-6.9862E-1,-6.0018474E-1,5.856275E-1,-1.8963563E-1,-7.143266E-2,1.0166358E0,1.1033454E0,-1.3768665E0,8.795554E-3,6.749701E-2,2.7224828E-2,-1.809598E-2,1.2899059E0,3.040982E-1,-4.4764277E-1,1.8689452E-2,-2.6611304E-2,-1.9885264E-1,-2.842792E-1,1.8408391E0,1.1641296E0,-5.7069506E-2,-1.0731887E-2,2.3233943E0,1.1107775E0,-8.7069064E-1,-5.3541255E-1,2.4737602E-2,6.280069E-2,5.006675E-2,5.1487656E-3,-1.5170989E-3,-6.830817E-2,5.5462815E-2,-4.43353E-1,2.298871E-1,-3.4917274E-1,-3.421125E-2,9.483201E-2,-4.0828806E-1,-1.9203696E-1,1.7296601E-2,7.436613E-2,-4.9366465E-1,-6.212129E-1,-4.6598452E-1,3.5632718E-3,-6.4767585E-3,-6.076902E-2,-2.0287562E-2,3.5840083E-2,-3.7275966E-2,1.8043999E-2,-3.606208E-2,1.3448427E-2,-3.582582E-1,-7.190927E-2,-3.329731E-2,-3.582582E-1,7.4166055E-3,2.0175195E0,5.643337E-2,-3.0738434E-1,-5.0667197E-2,1.2865512E-3,2.052235E-2,-2.5655523E-2,5.1447004E-2,4.13485E-3,3.6916013E-3,-5.075213E-2,5.6728125E-2,1.324062E-2,-6.004275E-2,-9.989498E-3,-3.5155814E-2,2.502284E-2],"split_indices":[6,0,6,34,14,5,17,0,34,0,0,44,0,6,29,44,30,29,29,22,0,0,0,8,0,14,30,0,0,5,22,0,40,0,14,14,0,0,0,0,0,14,0,0,0,0,0,0,29,8,14,38,0,0,22,22,40,30,0,14,14,40,0,0,0,0,14,0,38,0,0,32,33,45,14,0,0,4,14,40,29,0,0,0,0,0,0,0,44,40,29,0,40,39,33,0,0,38,22,34,0,0,0,0,0,0,0,0,0,31,0,0,31,0,0,0,44,0,0,0,0,0,0,0,0,0,0,0,0,0,0],"split_type":[0,0,0,0,0,0,0,0,0,0,0,0,0,0,0,0,0,0,0,0,0,0,0,0,0,0,0,0,0,0,0,0,0,0,0,0,0,0,0,0,0,0,0,0,0,0,0,0,0,0,0,0,0,0,0,0,0,0,0,0,0,0,0,0,0,0,0,0,0,0,0,0,0,0,0,0,0,0,0,0,0,0,0,0,0,0,0,0,0,0,0,0,0,0,0,0,0,0,0,0,0,0,0,0,0,0,0,0,0,0,0,0,0,0,0,0,0,0,0,0,0,0,0,0,0,0,0,0,0,0,0],"sum_hessian":[2.476047E3,1.0745903E3,1.4014568E3,3.529041E2,1.0485527E3,1.7451355E2,1.7839056E2,1.0070435E3,4.150916E1,1.6651892E2,7.9946365E0,1.7301294E2,5.3776245E0,1.9689007E1,2.1820152E1,1.4045343E2,2.606549E1,3.7712376E1,1.3530057E2,1.611775E1,3.571256E0,5.7647114E0,1.605544E1,1.0098594E2,3.9467484E1,1.9670635E1,6.3948545E0,4.1632385E0,3.3549137E1,1.1133832E2,2.396225E1,5.570724E0,1.0547027E1,7.391957E1,2.7066372E1,2.7790375E1,1.167711E1,3.9336698E0,1.5736966E1,3.2465909E0,3.148264E0,9.259408E1,1.8744236E1,4.053677E0,1.9908571E1,5.805949E0,4.7410774E0,6.1716263E1,1.2203303E1,1.59567375E1,1.1109633E1,1.9968994E1,7.821382E0,5.2278333E0,6.449276E0,4.759008E1,4.5004E1,7.604488E0,1.1139749E1,4.440016E1,1.7316101E1,8.784591E0,3.418713E0,1.0765075E1,5.1916633E0,3.4531708E0,7.6564627E0,9.707394E0,1.02616005E1,3.1693537E0,3.2799222E0,3.2834587E1,1.4755493E1,3.2415123E1,1.2588876E1,3.1357782E0,4.46871E0,2.5100887E1,1.9299274E1,8.737733E0,8.578368E0,4.3089333E0,4.4756575E0,4.2697353E0,3.3867276E0,3.0129244E0,6.6944695E0,3.3191206E0,6.9424796E0,9.774736E0,2.305985E1,3.8296895E0,1.0925803E1,1.620163E1,1.6213495E1,4.628912E0,7.9599633E0,7.5498934E0,1.7550995E1,1.5303281E1,3.9959946E0,4.1916337E0,4.546099E0,5.1370482E0,3.4413202E0,3.4494445E0,3.4930348E0,4.279273E0,5.495464E0,1.2915688E1,1.0144164E1,3.5775099E0,7.3482933E0,5.273945E0,1.0927685E1,6.7806206E0,9.432874E0,4.5072913E0,3.042602E0,1.4165776E1,3.3852181E0,1.1918919E1,3.3843615E0,4.0912485E0,8.824439E0,3.9767828E0,3.3715105E0,7.858737E0,3.068948E0,3.9959662E0,5.436908E0],"tree_param":{"num_deleted":"0","num_feature":"48","num_nodes":"131","size_leaf_vector":"1"}},{"base_weights":[-8.187076E-4,6.860485E-2,-1.0505027E0,-1.8472989E-1,-1.340188E0,2.665842E-1,-6.239677E-1,-1.3476535E0,3.5771918E-2,3.4420726E-1,-5.7550907E-2,-6.7715025E-1,5.5264395E-2,-6.83799E-2,-8.691871E-1,6.35823E-1,5.9740074E-2,-8.6696446E-1,-3.047278E-1,4.093012E-2,-1.0974687E0,1.0255646E-1,8.553216E-1,8.8949746E-1,-8.6280055E-2,-9.1417104E-1,2.6457949E-2,3.3557704E-1,-7.3287445E-1,-7.045782E-1,-6.7398965E-2,8.7947226E-1,-4.170038E-1,1.0057274E0,2.4446943E-1,1.3311395E-2,6.2196888E-2,-5.6138045E-1,2.1945557E-1,-7.46963E-1,-1.1304247E0,6.506114E-1,-3.8655095E-2,-6.082427E-2,-4.150153E-1,-1.1368921E-1,-6.328362E-2,2.685449E-2,5.7590224E-2,-5.493784E-2,-2.714819E-2,1.1049379E0,5.4073435E-1,-2.0083427E-2,4.438267E-2,-8.119775E-1,-3.933417E-2,4.6145365E-1,-6.01476E-1,-1.1628138E0,-4.8798493E-1,-6.405005E-2,-8.033058E-1,1.0291494E0,-0E0,-8.537689E-1,4.1506553E-1,-4.674888E-2,2.7597606E-2,-2.3985967E-2,1.977569E-2,2.5602052E-2,5.7927277E-2,7.6008993E-3,4.3691736E-2,-1.5783662E-1,-1.1304288E0,3.3826947E-2,-2.7143387E-2,1.575574E-1,9.6285707E-1,-5.3674E-2,1.5503876E-2,-3.2366585E-2,-6.351809E-2,2.7773443E-1,-6.6653E-1,-4.944485E-2,-6.411707E-2,2.0265969E-2,1.2404243E0,-2.90795E-2,3.9618008E-2,-0E0,-6.3280374E-2,5.2132424E-2,-1.8570157E-2,5.151668E-3,-2.124732E-2,-6.774697E-2,-2.5269825E-2,-2.575477E-1,6.040581E-1,6.3078955E-2,1.0301275E-2,5.4815758E-2,-3.19172E-2,-8.394212E-1,4.4011295E-2,3.1037882E-2,-3.378794E-2,7.2889395E-2,3.0184878E-2,-6.7301553E-1,3.2421112E-2,5.8532175E-2,-1.2191492E-2,1.2896103E-2,-1.0131665E0,-2.7549405E-2,3.0162979E-2,-0E0,-5.1941693E-2,-5.0056353E-3,-5.6713652E-2],"categories":[],"categories_nodes":[],"categories_segments":[],"categories_sizes":[],"default_left":[0,0,0,0,0,0,0,0,0,0,0,0,0,0,0,0,0,0,0,0,0,0,0,0,0,0,0,0,0,0,0,0,0,0,0,0,0,0,0,0,0,0,0,0,0,0,0,0,0,0,0,0,0,0,0,0,0,0,0,0,0,0,0,0,0,0,0,0,0,0,0,0,0,0,0,0,0,0,0,0,0,0,0,0,0,0,0,0,0,0,0,0,0,0,0,0,0,0,0,0,0,0,0,0,0,0,0,0,0,0,0,0,0,0,0,0,0,0,0,0,0,0,0,0,0],"id":12,"left_children":[1,-1,3,5,7,9,11,13,-1,15,-1,17,-1,-1,19,21,23,25,27,-1,29,31,33,35,37,39,-1,41,43,45,-1,47,49,51,53,-1,-1,55,57,59,61,63,-1,-1,65,67,-1,-1,-1,-1,69,71,73,-1,-1,75,77,79,81,83,85,-1,87,89,91,93,95,-1,-1,-1,-1,-1,-1,-1,-1,97,99,-1,-1,101,103,-1,-1,-1,-1,105,107,109,-1,-1,111,-1,-1,-1,-1,-1,-1,-1,-1,-1,-1,113,115,-1,-1,-1,-1,117,119,-1,-1,-1,-1,121,-1,-1,-1,-1,123,-1,-1,-1,-1,-1,-1],"loss_changes":[3.4925334E3,0E0,3.4406714E2,6.870947E1,1.681665E1,1.9136435E1,1.6850182E1,8.3741455E0,0E0,1.3413862E1,0E0,1.1705917E1,0E0,0E0,1.7872543E1,9.205143E0,1.0308794E1,7.9393997E0,1.6582476E1,0E0,2.7053719E0,1.0366065E1,4.82489E0,2.3298426E0,1.0624144E1,2.91996E0,0E0,9.01765E0,4.870943E0,5.527439E0,0E0,1.7103052E-1,3.944619E0,1.3105125E0,5.6522574E0,0E0,0E0,3.6275177E0,9.091074E0,6.2512054E0,1.0012245E0,4.73392E0,0E0,0E0,8.91504E0,5.868035E0,0E0,0E0,0E0,0E0,2.2834604E0,3.8046265E-1,1.0640004E0,0E0,0E0,3.6838684E0,4.1257935E0,5.06601E0,4.9081783E0,3.1724167E-1,5.94304E0,0E0,6.021056E0,9.554558E-1,4.3115206E0,5.4388475E0,4.7387843E0,0E0,0E0,0E0,0E0,0E0,0E0,0E0,0E0,6.012542E-1,9.0023994E-1,0E0,0E0,4.4713454E0,2.5052204E0,0E0,0E0,0E0,0E0,7.1268926E0,4.3328257E0,3.7036765E0,0E0,0E0,1.03004456E-1,0E0,0E0,0E0,0E0,0E0,0E0,0E0,0E0,0E0,0E0,5.16455E0,5.9234953E0,0E0,0E0,0E0,0E0,5.6310635E0,2.8512096E0,0E0,0E0,0E0,0E0,2.1897182E0,0E0,0E0,0E0,0E0,2.4449387E0,0E0,0E0,0E0,0E0,0E0,0E0],"parents":[2147483647,0,0,2,2,3,3,4,4,5,5,6,6,7,7,9,9,11,11,14,14,15,15,16,16,17,17,18,18,20,20,21,21,22,22,23,23,24,24,25,25,27,27,28,28,29,29,31,31,32,32,33,33,34,34,37,37,38,38,39,39,40,40,41,41,44,44,45,45,50,50,51,51,52,52,55,55,56,56,57,57,58,58,59,59,60,60,62,62,63,63,64,64,65,65,66,66,75,75,76,76,79,79,80,80,85,85,86,86,87,87,90,90,101,101,102,102,107,107,108,108,113,113,118,118],"right_children":[2,-1,4,6,8,10,12,14,-1,16,-1,18,-1,-1,20,22,24,26,28,-1,30,32,34,36,38,40,-1,42,44,46,-1,48,50,52,54,-1,-1,56,58,60,62,64,-1,-1,66,68,-1,-1,-1,-1,70,72,74,-1,-1,76,78,80,82,84,86,-1,88,90,92,94,96,-1,-1,-1,-1,-1,-1,-1,-1,98,100,-1,-1,102,104,-1,-1,-1,-1,106,108,110,-1,-1,112,-1,-1,-1,-1,-1,-1,-1,-1,-1,-1,114,116,-1,-1,-1,-1,118,120,-1,-1,-1,-1,122,-1,-1,-1,-1,124,-1,-1,-1,-1,-1,-1],"split_conditions":[-2.9764152E-1,6.860485E-2,4.526516E-1,-4.300823E-1,1.3653965E1,4.9642253E0,1.3653965E1,2.1545932E0,3.5771918E-2,-7.4639016E-1,-5.7550907E-2,1.8408391E0,5.5264395E-2,-6.83799E-2,-5.346363E-1,-1.3142301E0,-7.522057E-1,1.3827718E0,-1.9203696E-1,4.093012E-2,2.703531E0,-2.0836527E0,-4.9826682E-1,2.3602037E0,-6.5986705E-1,-3.582582E-1,2.6457949E-2,-2.0526226E-1,-3.0738434E-1,-2.473073E-1,-6.7398965E-2,-2.1738985E0,1.4846032E0,3.960259E0,-6.3183296E-1,1.3311395E-2,6.2196888E-2,-4.627207E-1,1.0966121E0,-5.037835E-1,5.688597E-1,-3.9859724E-1,-3.8655095E-2,-6.082427E-2,-6.0018474E-1,-4.5887947E-1,-6.328362E-2,2.685449E-2,5.7590224E-2,-5.493784E-2,1.8562149E0,-5.3742033E-1,1.811909E0,-2.0083427E-2,4.438267E-2,-7.3498225E-1,-4.8446026E-1,1.6044128E0,-4.4994387E-1,-5.1530737E-1,-4.1312638E-1,-6.405005E-2,-7.295794E-2,-4.7914797E-1,-2.4280688E-1,-2.5435096E-1,1.1950773E0,-4.674888E-2,2.7597606E-2,-2.3985967E-2,1.977569E-2,2.5602052E-2,5.7927277E-2,7.6008993E-3,4.3691736E-2,-6.940905E-1,-5.339988E-1,3.3826947E-2,-2.7143387E-2,-4.9916324E-1,-6.795796E-1,-5.3674E-2,1.5503876E-2,-3.2366585E-2,-6.351809E-2,9.894667E-1,6.587512E-1,1.8562149E0,-6.411707E-2,2.0265969E-2,1.7433721E0,-2.90795E-2,3.9618008E-2,-0E0,-6.3280374E-2,5.2132424E-2,-1.8570157E-2,5.151668E-3,-2.124732E-2,-6.774697E-2,-2.5269825E-2,-5.339988E-1,-4.6598452E-1,